[
  { "nodeid": 0, "depth": 0, "split": "f6", "split_condition": 0.601103544, "yes": 1, "no": 2, "missing": 1 , "gain": 817.723877, "cover": 2488.84497, "children": [
    { "nodeid": 1, "depth": 1, "split": "f8", "split_condition": 0.00999999978, "yes": 3, "no": 4, "missing": 3 , "gain": 199.973511, "cover": 336.733856, "children": [
      { "nodeid": 3, "depth": 2, "split": "f11", "split_condition": 2.00001001, "yes": 7, "no": 8, "missing": 8 , "gain": 17.5989704, "cover": 113.213379, "children": [
        { "nodeid": 7, "depth": 3, "split": "f8", "split_condition": 0.000133333335, "yes": 15, "no": 16, "missing": 15 , "gain": 4.52881813, "cover": 55.6159058, "children": [
          { "nodeid": 15, "depth": 4, "split": "f0", "split_condition": 7.8420002e-05, "yes": 31, "no": 32, "missing": 32 , "gain": 3.25334167, "cover": 3.56681585, "children": [
            { "nodeid": 31, "leaf": -0.013905637 , "cover": 2.50998163 }, 
            { "nodeid": 32, "leaf": 0.0667743534 , "cover": 1.05683434 }
          ]}, 
          { "nodeid": 16, "depth": 4, "split": "f8", "split_condition": 0.00805335119, "yes": 33, "no": 34, "missing": 34 , "gain": 1.87945557, "cover": 52.0490913, "children": [
            { "nodeid": 33, "leaf": -0.0374716222 , "cover": 47.5575447 }, 
            { "nodeid": 34, "leaf": -0.00296618557 , "cover": 4.49154615 }
          ]}
        ]}, 
        { "nodeid": 8, "depth": 3, "split": "f7", "split_condition": 0.806415617, "yes": 17, "no": 18, "missing": 18 , "gain": 12.0710182, "cover": 57.5974731, "children": [
          { "nodeid": 17, "depth": 4, "split": "f0", "split_condition": 0.00933333673, "yes": 35, "no": 36, "missing": 35 , "gain": 10.7766409, "cover": 51.1243629, "children": [
            { "nodeid": 35, "leaf": 0.00450333208 , "cover": 40.6881218 }, 
            { "nodeid": 36, "leaf": 0.0595711432 , "cover": 10.4362392 }
          ]}, 
          { "nodeid": 18, "leaf": -0.0513533652 , "cover": 6.4731102 }
        ]}
      ]}, 
      { "nodeid": 4, "depth": 2, "split": "f7", "split_condition": 0.747280359, "yes": 9, "no": 10, "missing": 9 , "gain": 88.2384949, "cover": 223.520462, "children": [
        { "nodeid": 9, "depth": 3, "split": "f11", "split_condition": 2.00001001, "yes": 19, "no": 20, "missing": 20 , "gain": 101.093262, "cover": 190.890701, "children": [
          { "nodeid": 19, "depth": 4, "split": "f5", "split_condition": 0.367151767, "yes": 37, "no": 38, "missing": 38 , "gain": 16.1554394, "cover": 54.6911774, "children": [
            { "nodeid": 37, "leaf": 0.0563870557 , "cover": 22.8540421 }, 
            { "nodeid": 38, "leaf": 0.00190276396 , "cover": 31.8371353 }
          ]}, 
          { "nodeid": 20, "depth": 4, "split": "f0", "split_condition": 0.0399999991, "yes": 39, "no": 40, "missing": 40 , "gain": 14.4998169, "cover": 136.199524, "children": [
            { "nodeid": 39, "leaf": 0.0720073506 , "cover": 31.4408207 }, 
            { "nodeid": 40, "leaf": 0.115727618 , "cover": 104.758705 }
          ]}
        ]}, 
        { "nodeid": 10, "depth": 3, "split": "f7", "split_condition": 0.851046026, "yes": 21, "no": 22, "missing": 22 , "gain": 5.84103775, "cover": 32.6297607, "children": [
          { "nodeid": 21, "depth": 4, "split": "f2", "split_condition": 0.370000005, "yes": 41, "no": 42, "missing": 42 , "gain": 7.10440731, "cover": 13.0783253, "children": [
            { "nodeid": 41, "leaf": 0.0550710633 , "cover": 6.07679749 }, 
            { "nodeid": 42, "leaf": -0.0143844383 , "cover": 7.00152731 }
          ]}, 
          { "nodeid": 22, "depth": 4, "split": "f1", "split_condition": 0.620000005, "yes": 43, "no": 44, "missing": 43 , "gain": 10.9619083, "cover": 19.5514355, "children": [
            { "nodeid": 43, "leaf": -0.0478652082 , "cover": 12.9462204 }, 
            { "nodeid": 44, "leaf": 0.0274020713 , "cover": 6.6052146 }
          ]}
        ]}
      ]}
    ]}, 
    { "nodeid": 2, "depth": 1, "split": "f7", "split_condition": 0.787168741, "yes": 5, "no": 6, "missing": 6 , "gain": 190.146729, "cover": 2152.11108, "children": [
      { "nodeid": 5, "depth": 2, "split": "f0", "split_condition": 0.00255000009, "yes": 11, "no": 12, "missing": 11 , "gain": 162.850418, "cover": 816.932922, "children": [
        { "nodeid": 11, "depth": 3, "split": "f12", "split_condition": 2.00001001, "yes": 23, "no": 24, "missing": 24 , "gain": 13.3157654, "cover": 414.014862, "children": [
          { "nodeid": 23, "depth": 4, "split": "f6", "split_condition": 0.828464806, "yes": 45, "no": 46, "missing": 46 , "gain": 4.47702599, "cover": 33.8186989, "children": [
            { "nodeid": 45, "leaf": -0.00203873753 , "cover": 25.3640251 }, 
            { "nodeid": 46, "leaf": -0.0424393006 , "cover": 8.45467472 }
          ]}, 
          { "nodeid": 24, "depth": 4, "split": "f8", "split_condition": 0.00077777775, "yes": 47, "no": 48, "missing": 48 , "gain": 5.22113037, "cover": 380.196167, "children": [
            { "nodeid": 47, "leaf": -0.0513450764 , "cover": 226.823074 }, 
            { "nodeid": 48, "leaf": -0.0384975448 , "cover": 153.373077 }
          ]}
        ]}, 
        { "nodeid": 12, "depth": 3, "split": "f12", "split_condition": 2.00001001, "yes": 25, "no": 26, "missing": 26 , "gain": 104.112587, "cover": 402.918091, "children": [
          { "nodeid": 25, "depth": 4, "split": "f6", "split_condition": 0.6372931, "yes": 49, "no": 50, "missing": 50 , "gain": 22.0474014, "cover": 73.9784012, "children": [
            { "nodeid": 49, "leaf": 0.126789168 , "cover": 8.45467472 }, 
            { "nodeid": 50, "leaf": 0.0430720635 , "cover": 65.5237274 }
          ]}, 
          { "nodeid": 26, "depth": 4, "split": "f2", "split_condition": 0.25, "yes": 51, "no": 52, "missing": 51 , "gain": 24.3414574, "cover": 328.939697, "children": [
            { "nodeid": 51, "leaf": -0.0143813286 , "cover": 310.973511 }, 
            { "nodeid": 52, "leaf": 0.0440175161 , "cover": 17.9661846 }
          ]}
        ]}
      ]}, 
      { "nodeid": 6, "depth": 2, "split": "f6", "split_condition": 0.904901028, "yes": 13, "no": 14, "missing": 14 , "gain": 14.0740967, "cover": 1335.1781, "children": [
        { "nodeid": 13, "depth": 3, "split": "f7", "split_condition": 0.898186862, "yes": 27, "no": 28, "missing": 28 , "gain": 12.7471313, "cover": 624.589111, "children": [
          { "nodeid": 27, "depth": 4, "split": "f1", "split_condition": 0.108000003, "yes": 53, "no": 54, "missing": 53 , "gain": 19.9351501, "cover": 360.644714, "children": [
            { "nodeid": 53, "leaf": -0.046748925 , "cover": 274.909027 }, 
            { "nodeid": 54, "leaf": -0.0188271534 , "cover": 85.7356873 }
          ]}, 
          { "nodeid": 28, "depth": 4, "split": "f6", "split_condition": 0.6209023, "yes": 55, "no": 56, "missing": 56 , "gain": 1.54598999, "cover": 263.944366, "children": [
            { "nodeid": 55, "leaf": -0.00812945981 , "cover": 2.11366868 }, 
            { "nodeid": 56, "leaf": -0.0554466359 , "cover": 261.830719 }
          ]}
        ]}, 
        { "nodeid": 14, "depth": 3, "split": "f12", "split_condition": 2.00001001, "yes": 29, "no": 30, "missing": 30 , "gain": 0.392883301, "cover": 710.588989, "children": [
          { "nodeid": 29, "depth": 4, "split": "f7", "split_condition": 0.861087859, "yes": 57, "no": 58, "missing": 58 , "gain": 2.34720612, "cover": 86.7925186, "children": [
            { "nodeid": 57, "leaf": -0.0223188028 , "cover": 8.71888351 }, 
            { "nodeid": 58, "leaf": -0.0534783602 , "cover": 78.0736389 }
          ]}, 
          { "nodeid": 30, "depth": 4, "split": "f3", "split_condition": 0.210526317, "yes": 59, "no": 60, "missing": 60 , "gain": 0.268615723, "cover": 623.796448, "children": [
            { "nodeid": 59, "leaf": -0.0377526768 , "cover": 8.71888351 }, 
            { "nodeid": 60, "leaf": -0.0582977235 , "cover": 615.077576 }
          ]}
        ]}
      ]}
    ]}
  ]},
  { "nodeid": 0, "depth": 0, "split": "f6", "split_condition": 0.601103544, "yes": 1, "no": 2, "missing": 1 , "gain": 752.281067, "cover": 2439.37793, "children": [
    { "nodeid": 1, "depth": 1, "split": "f8", "split_condition": 0.00999999978, "yes": 3, "no": 4, "missing": 3 , "gain": 168.247147, "cover": 346.692139, "children": [
      { "nodeid": 3, "depth": 2, "split": "f11", "split_condition": 2.00001001, "yes": 7, "no": 8, "missing": 8 , "gain": 16.2630196, "cover": 112.342651, "children": [
        { "nodeid": 7, "depth": 3, "split": "f8", "split_condition": 0.000133333335, "yes": 15, "no": 16, "missing": 15 , "gain": 4.31315994, "cover": 54.4150887, "children": [
          { "nodeid": 15, "depth": 4, "split": "f4", "split_condition": 0.609840631, "yes": 31, "no": 32, "missing": 32 , "gain": 3.13742161, "cover": 3.5918262, "children": [
            { "nodeid": 31, "leaf": 0.0460456796 , "cover": 2.40684223 }, 
            { "nodeid": 32, "leaf": -0.0321321338 , "cover": 1.18498397 }
          ]}, 
          { "nodeid": 16, "depth": 4, "split": "f8", "split_condition": 0.00805335119, "yes": 33, "no": 34, "missing": 34 , "gain": 1.78954315, "cover": 50.8232651, "children": [
            { "nodeid": 33, "leaf": -0.0365766287 , "cover": 46.3408623 }, 
            { "nodeid": 34, "leaf": -0.00284975138 , "cover": 4.48240089 }
          ]}
        ]}, 
        { "nodeid": 8, "depth": 3, "split": "f7", "split_condition": 0.806415617, "yes": 17, "no": 18, "missing": 18 , "gain": 11.2187672, "cover": 57.9275589, "children": [
          { "nodeid": 17, "depth": 4, "split": "f0", "split_condition": 0.00933333673, "yes": 35, "no": 36, "missing": 35 , "gain": 9.31954956, "cover": 51.6808968, "children": [
            { "nodeid": 35, "leaf": 0.00427032402 , "cover": 40.8140373 }, 
            { "nodeid": 36, "leaf": 0.0547360741 , "cover": 10.8668594 }
          ]}, 
          { "nodeid": 18, "leaf": -0.0507047437 , "cover": 6.24666166 }
        ]}
      ]}, 
      { "nodeid": 4, "depth": 2, "split": "f7", "split_condition": 0.755927503, "yes": 9, "no": 10, "missing": 9 , "gain": 71.984436, "cover": 234.349487, "children": [
        { "nodeid": 9, "depth": 3, "split": "f11", "split_condition": 2.00001001, "yes": 19, "no": 20, "missing": 20 , "gain": 77.7709656, "cover": 202.92009, "children": [
          { "nodeid": 19, "depth": 4, "split": "f5", "split_condition": 0.367151767, "yes": 37, "no": 38, "missing": 38 , "gain": 13.8383398, "cover": 55.625, "children": [
            { "nodeid": 37, "leaf": 0.0516995974 , "cover": 23.7462521 }, 
            { "nodeid": 38, "leaf": 0.00180816988 , "cover": 31.8787498 }
          ]}, 
          { "nodeid": 20, "depth": 4, "split": "f0", "split_condition": 0.0388166793, "yes": 39, "no": 40, "missing": 40 , "gain": 10.5130615, "cover": 147.295074, "children": [
            { "nodeid": 39, "leaf": 0.0643913746 , "cover": 32.4488983 }, 
            { "nodeid": 40, "leaf": 0.101095453 , "cover": 114.846184 }
          ]}
        ]}, 
        { "nodeid": 10, "depth": 3, "split": "f7", "split_condition": 0.851046026, "yes": 21, "no": 22, "missing": 22 , "gain": 4.78043938, "cover": 31.4293995, "children": [
          { "nodeid": 21, "depth": 4, "split": "f8", "split_condition": 0.0350000001, "yes": 41, "no": 42, "missing": 42 , "gain": 3.87185526, "cover": 12.175539, "children": [
            { "nodeid": 41, "leaf": 0.0430909842 , "cover": 5.91374969 }, 
            { "nodeid": 42, "leaf": -0.00991982128 , "cover": 6.2617898 }
          ]}, 
          { "nodeid": 22, "depth": 4, "split": "f1", "split_condition": 0.620000005, "yes": 43, "no": 44, "missing": 43 , "gain": 10.2732458, "cover": 19.2538605, "children": [
            { "nodeid": 43, "leaf": -0.0471065529 , "cover": 12.5238466 }, 
            { "nodeid": 44, "leaf": 0.0257778801 , "cover": 6.73001385 }
          ]}
        ]}
      ]}
    ]}, 
    { "nodeid": 2, "depth": 1, "split": "f7", "split_condition": 0.787168741, "yes": 5, "no": 6, "missing": 6 , "gain": 186.143799, "cover": 2092.68579, "children": [
      { "nodeid": 5, "depth": 2, "split": "f0", "split_condition": 0.00255000009, "yes": 11, "no": 12, "missing": 11 , "gain": 154.000748, "cover": 804.869873, "children": [
        { "nodeid": 11, "depth": 3, "split": "f12", "split_condition": 2.00001001, "yes": 23, "no": 24, "missing": 24 , "gain": 12.9053345, "cover": 401.770294, "children": [
          { "nodeid": 23, "depth": 4, "split": "f6", "split_condition": 0.828464806, "yes": 45, "no": 46, "missing": 46 , "gain": 4.24086189, "cover": 33.5384178, "children": [
            { "nodeid": 45, "leaf": -0.0019433517 , "cover": 25.3285255 }, 
            { "nodeid": 46, "leaf": -0.0416475534 , "cover": 8.20989418 }
          ]}, 
          { "nodeid": 24, "depth": 4, "split": "f8", "split_condition": 0.00077777775, "yes": 47, "no": 48, "missing": 48 , "gain": 5.21624756, "cover": 368.231873, "children": [
            { "nodeid": 47, "leaf": -0.0505958572 , "cover": 218.889374 }, 
            { "nodeid": 48, "leaf": -0.0375918113 , "cover": 149.342499 }
          ]}
        ]}, 
        { "nodeid": 12, "depth": 3, "split": "f12", "split_condition": 2.00001001, "yes": 25, "no": 26, "missing": 26 , "gain": 91.4698944, "cover": 403.099579, "children": [
          { "nodeid": 25, "depth": 4, "split": "f6", "split_condition": 0.676079214, "yes": 49, "no": 50, "missing": 50 , "gain": 18.838623, "cover": 76.6777267, "children": [
            { "nodeid": 49, "leaf": 0.0931095406 , "cover": 18.3181095 }, 
            { "nodeid": 50, "leaf": 0.0348081179 , "cover": 58.3596191 }
          ]}, 
          { "nodeid": 26, "depth": 4, "split": "f11", "split_condition": 2.00001001, "yes": 51, "no": 52, "missing": 52 , "gain": 24.5231762, "cover": 326.421844, "children": [
            { "nodeid": 51, "leaf": -0.0282305814 , "cover": 122.053802 }, 
            { "nodeid": 52, "leaf": 2.18955884e-05 , "cover": 204.368042 }
          ]}
        ]}
      ]}, 
      { "nodeid": 6, "depth": 2, "split": "f6", "split_condition": 0.904901028, "yes": 13, "no": 14, "missing": 14 , "gain": 14.2316895, "cover": 1287.8158, "children": [
        { "nodeid": 13, "depth": 3, "split": "f7", "split_condition": 0.898186862, "yes": 27, "no": 28, "missing": 28 , "gain": 12.7549744, "cover": 604.827515, "children": [
          { "nodeid": 27, "depth": 4, "split": "f1", "split_condition": 0.108000003, "yes": 53, "no": 54, "missing": 53 , "gain": 19.4036865, "cover": 350.778107, "children": [
            { "nodeid": 53, "leaf": -0.0459151678 , "cover": 266.147705 }, 
            { "nodeid": 54, "leaf": -0.0181337316 , "cover": 84.6304016 }
          ]}, 
          { "nodeid": 28, "depth": 4, "split": "f6", "split_condition": 0.6209023, "yes": 55, "no": 56, "missing": 56 , "gain": 1.51672363, "cover": 254.049423, "children": [
            { "nodeid": 55, "leaf": -0.00788414292 , "cover": 2.10188341 }, 
            { "nodeid": 56, "leaf": -0.0547976792 , "cover": 251.94754 }
          ]}
        ]}, 
        { "nodeid": 14, "depth": 3, "split": "f12", "split_condition": 2.00001001, "yes": 29, "no": 30, "missing": 30 , "gain": 0.442138672, "cover": 682.988281, "children": [
          { "nodeid": 29, "depth": 4, "split": "f7", "split_condition": 0.861087859, "yes": 57, "no": 58, "missing": 58 , "gain": 2.32383728, "cover": 83.8160477, "children": [
            { "nodeid": 57, "leaf": -0.0216216128 , "cover": 8.58570766 }, 
            { "nodeid": 58, "leaf": -0.052784469 , "cover": 75.2303391 }
          ]}, 
          { "nodeid": 30, "depth": 4, "split": "f3", "split_condition": 0.210526317, "yes": 59, "no": 60, "missing": 60 , "gain": 0.296203613, "cover": 599.172241, "children": [
            { "nodeid": 59, "leaf": -0.0369351543 , "cover": 8.49416161 }, 
            { "nodeid": 60, "leaf": -0.0577319227 , "cover": 590.678101 }
          ]}
        ]}
      ]}
    ]}
  ]},
  { "nodeid": 0, "depth": 0, "split": "f6", "split_condition": 0.6372931, "yes": 1, "no": 2, "missing": 1 , "gain": 696.625122, "cover": 2390.73657, "children": [
    { "nodeid": 1, "depth": 1, "split": "f8", "split_condition": 0.00999999978, "yes": 3, "no": 4, "missing": 3 , "gain": 163.751831, "cover": 426.830719, "children": [
      { "nodeid": 3, "depth": 2, "split": "f10", "split_condition": 2.00001001, "yes": 7, "no": 8, "missing": 8 , "gain": 19.5729561, "cover": 144.624908, "children": [
        { "nodeid": 7, "depth": 3, "split": "f0", "split_condition": 0.0187890101, "yes": 15, "no": 16, "missing": 15 , "gain": 9.15753555, "cover": 28.6202564, "children": [
          { "nodeid": 15, "depth": 4, "split": "f4", "split_condition": 0.666666687, "yes": 31, "no": 32, "missing": 32 , "gain": 6.4003706, "cover": 26.5381699, "children": [
            { "nodeid": 31, "leaf": 0.0227638725 , "cover": 23.4034843 }, 
            { "nodeid": 32, "leaf": -0.0448739193 , "cover": 3.13468647 }
          ]}, 
          { "nodeid": 16, "leaf": 0.105366409 , "cover": 2.08208561 }
        ]}, 
        { "nodeid": 8, "depth": 3, "split": "f11", "split_condition": 2.00001001, "yes": 17, "no": 18, "missing": 18 , "gain": 6.9801445, "cover": 116.004654, "children": [
          { "nodeid": 17, "depth": 4, "split": "f0", "split_condition": 0.0666666701, "yes": 33, "no": 34, "missing": 34 , "gain": 6.25383949, "cover": 67.6881485, "children": [
            { "nodeid": 33, "leaf": -0.0348056555 , "cover": 66.3392487 }, 
            { "nodeid": 34, "leaf": 0.0508895405 , "cover": 1.34890163 }
          ]}, 
          { "nodeid": 18, "depth": 4, "split": "f7", "split_condition": 0.568200827, "yes": 35, "no": 36, "missing": 36 , "gain": 6.71018219, "cover": 48.3165054, "children": [
            { "nodeid": 35, "leaf": 0.00340234349 , "cover": 36.5896339 }, 
            { "nodeid": 36, "leaf": -0.0386692099 , "cover": 11.7268686 }
          ]}
        ]}
      ]}, 
      { "nodeid": 4, "depth": 2, "split": "f11", "split_condition": 2.00001001, "yes": 9, "no": 10, "missing": 10 , "gain": 81.1832581, "cover": 282.20578, "children": [
        { "nodeid": 9, "depth": 3, "split": "f6", "split_condition": 0.492372602, "yes": 19, "no": 20, "missing": 20 , "gain": 13.4620333, "cover": 75.5616455, "children": [
          { "nodeid": 19, "depth": 4, "split": "f2", "split_condition": 0.333333343, "yes": 37, "no": 38, "missing": 37 , "gain": 15.9644785, "cover": 26.8811283, "children": [
            { "nodeid": 37, "leaf": 0.0157769546 , "cover": 22.2628593 }, 
            { "nodeid": 38, "leaf": 0.11111398 , "cover": 4.61826992 }
          ]}, 
          { "nodeid": 20, "depth": 4, "split": "f6", "split_condition": 0.601103544, "yes": 39, "no": 40, "missing": 40 , "gain": 5.4857378, "cover": 48.6805153, "children": [
            { "nodeid": 39, "leaf": 0.00263059279 , "cover": 35.3119888 }, 
            { "nodeid": 40, "leaf": -0.0339493006 , "cover": 13.3685284 }
          ]}
        ]}, 
        { "nodeid": 10, "depth": 3, "split": "f7", "split_condition": 0.747280359, "yes": 21, "no": 22, "missing": 21 , "gain": 83.2702332, "cover": 206.64415, "children": [
          { "nodeid": 21, "depth": 4, "split": "f2", "split_condition": 0.166666672, "yes": 41, "no": 42, "missing": 41 , "gain": 11.420929, "cover": 172.23761, "children": [
            { "nodeid": 41, "leaf": 0.0708550587 , "cover": 106.316284 }, 
            { "nodeid": 42, "leaf": 0.100132801 , "cover": 65.9213181 }
          ]}, 
          { "nodeid": 22, "depth": 4, "split": "f8", "split_condition": 0.0500000007, "yes": 43, "no": 44, "missing": 44 , "gain": 4.50273228, "cover": 34.4065475, "children": [
            { "nodeid": 43, "leaf": 0.0079996353 , "cover": 25.9158611 }, 
            { "nodeid": 44, "leaf": -0.032065209 , "cover": 8.49068451 }
          ]}
        ]}
      ]}
    ]}, 
    { "nodeid": 2, "depth": 1, "split": "f7", "split_condition": 0.787168741, "yes": 5, "no": 6, "missing": 6 , "gain": 154.973267, "cover": 1963.90588, "children": [
      { "nodeid": 5, "depth": 2, "split": "f0", "split_condition": 0.00333333667, "yes": 11, "no": 12, "missing": 11 , "gain": 127.110458, "cover": 733.18573, "children": [
        { "nodeid": 11, "depth": 3, "split": "f12", "split_condition": 2.00001001, "yes": 23, "no": 24, "missing": 24 , "gain": 11.4919739, "cover": 411.055695, "children": [
          { "nodeid": 23, "depth": 4, "split": "f1", "split_condition": 0.0209999997, "yes": 45, "no": 46, "missing": 46 , "gain": 4.52225161, "cover": 39.0845604, "children": [
            { "nodeid": 45, "leaf": -0.040887434 , "cover": 10.3345747 }, 
            { "nodeid": 46, "leaf": -0.00345499557 , "cover": 28.7499866 }
          ]}, 
          { "nodeid": 24, "depth": 4, "split": "f8", "split_condition": 0.00077777775, "yes": 47, "no": 48, "missing": 48 , "gain": 8.23892212, "cover": 371.97113, "children": [
            { "nodeid": 47, "leaf": -0.0500290468 , "cover": 203.362701 }, 
            { "nodeid": 48, "leaf": -0.0344661288 , "cover": 168.608429 }
          ]}
        ]}, 
        { "nodeid": 12, "depth": 3, "split": "f12", "split_condition": 2.00001001, "yes": 25, "no": 26, "missing": 26 , "gain": 55.4303665, "cover": 322.130035, "children": [
          { "nodeid": 25, "depth": 4, "split": "f4", "split_condition": 0.553014576, "yes": 49, "no": 50, "missing": 50 , "gain": 10.7474976, "cover": 62.2973061, "children": [
            { "nodeid": 49, "leaf": 0.00432987325 , "cover": 13.888937 }, 
            { "nodeid": 50, "leaf": 0.054443296 , "cover": 48.4083672 }
          ]}, 
          { "nodeid": 26, "depth": 4, "split": "f9", "split_condition": 2.00001001, "yes": 51, "no": 52, "missing": 52 , "gain": 16.3998222, "cover": 259.832733, "children": [
            { "nodeid": 51, "leaf": 0.00134961284 , "cover": 159.393478 }, 
            { "nodeid": 52, "leaf": -0.0243602078 , "cover": 100.43927 }
          ]}
        ]}
      ]}, 
      { "nodeid": 6, "depth": 2, "split": "f6", "split_condition": 0.904901028, "yes": 13, "no": 14, "missing": 14 , "gain": 13.3326416, "cover": 1230.72021, "children": [
        { "nodeid": 13, "depth": 3, "split": "f7", "split_condition": 0.898186862, "yes": 27, "no": 28, "missing": 28 , "gain": 12.5291748, "cover": 574.524536, "children": [
          { "nodeid": 27, "depth": 4, "split": "f1", "split_condition": 0.108000003, "yes": 53, "no": 54, "missing": 53 , "gain": 17.1231537, "cover": 334.24292, "children": [
            { "nodeid": 53, "leaf": -0.0449916683 , "cover": 255.692978 }, 
            { "nodeid": 54, "leaf": -0.0179823823 , "cover": 78.549942 }
          ]}, 
          { "nodeid": 28, "depth": 4, "split": "f3", "split_condition": 0.157894731, "yes": 55, "no": 56, "missing": 56 , "gain": 0.387969971, "cover": 240.281631, "children": [
            { "nodeid": 55, "leaf": -0.014417382 , "cover": 1.46736884 }, 
            { "nodeid": 56, "leaf": -0.0543212295 , "cover": 238.81427 }
          ]}
        ]}, 
        { "nodeid": 14, "depth": 3, "split": "f12", "split_condition": 2.00001001, "yes": 29, "no": 30, "missing": 30 , "gain": 0.493713379, "cover": 656.195618, "children": [
          { "nodeid": 29, "depth": 4, "split": "f7", "split_condition": 0.861087859, "yes": 57, "no": 58, "missing": 58 , "gain": 2.30205536, "cover": 80.9313202, "children": [
            { "nodeid": 57, "leaf": -0.0209404323 , "cover": 8.4575882 }, 
            { "nodeid": 58, "leaf": -0.0521121994 , "cover": 72.473732 }
          ]}, 
          { "nodeid": 30, "depth": 4, "split": "f3", "split_condition": 0.210526317, "yes": 59, "no": 60, "missing": 60 , "gain": 0.325073242, "cover": 575.264343, "children": [
            { "nodeid": 59, "leaf": -0.0361306071 , "cover": 8.27697182 }, 
            { "nodeid": 60, "leaf": -0.0571984127 , "cover": 566.987366 }
          ]}
        ]}
      ]}
    ]}
  ]},
  { "nodeid": 0, "depth": 0, "split": "f6", "split_condition": 0.6372931, "yes": 1, "no": 2, "missing": 1 , "gain": 646.75592, "cover": 2343.03857, "children": [
    { "nodeid": 1, "depth": 1, "split": "f8", "split_condition": 0.00999999978, "yes": 3, "no": 4, "missing": 3 , "gain": 141.386795, "cover": 434.735596, "children": [
      { "nodeid": 3, "depth": 2, "split": "f11", "split_condition": 2.00001001, "yes": 7, "no": 8, "missing": 8 , "gain": 18.1661034, "cover": 143.242386, "children": [
        { "nodeid": 7, "depth": 3, "split": "f0", "split_condition": 0.0666666701, "yes": 15, "no": 16, "missing": 16 , "gain": 5.88130951, "cover": 66.1198959, "children": [
          { "nodeid": 15, "depth": 4, "split": "f6", "split_condition": 0.536514103, "yes": 31, "no": 32, "missing": 32 , "gain": 2.88051796, "cover": 64.7242203, "children": [
            { "nodeid": 31, "leaf": -0.0193397552 , "cover": 24.7973633 }, 
            { "nodeid": 32, "leaf": -0.0422908328 , "cover": 39.9268608 }
          ]}, 
          { "nodeid": 16, "leaf": 0.0484386235 , "cover": 1.39566898 }
        ]}, 
        { "nodeid": 8, "depth": 3, "split": "f7", "split_condition": 0.806415617, "yes": 17, "no": 18, "missing": 18 , "gain": 10.9847288, "cover": 77.1224976, "children": [
          { "nodeid": 17, "depth": 4, "split": "f0", "split_condition": 0.00933333673, "yes": 33, "no": 34, "missing": 33 , "gain": 14.4667549, "cover": 68.721817, "children": [
            { "nodeid": 33, "leaf": -0.00129288458 , "cover": 54.2860832 }, 
            { "nodeid": 34, "leaf": 0.0535415895 , "cover": 14.4357319 }
          ]}, 
          { "nodeid": 18, "depth": 4, "split": "f7", "split_condition": 0.974058568, "yes": 35, "no": 36, "missing": 36 , "gain": 0.531710625, "cover": 8.40068436, "children": [
            { "nodeid": 35, "leaf": -0.0512471795 , "cover": 7.29682302 }, 
            { "nodeid": 36, "leaf": -0.00686387205 , "cover": 1.10386121 }
          ]}
        ]}
      ]}, 
      { "nodeid": 4, "depth": 2, "split": "f11", "split_condition": 2.00001001, "yes": 9, "no": 10, "missing": 10 , "gain": 67.3768311, "cover": 291.493225, "children": [
        { "nodeid": 9, "depth": 3, "split": "f6", "split_condition": 0.492372602, "yes": 19, "no": 20, "missing": 20 , "gain": 12.0309696, "cover": 75.8972244, "children": [
          { "nodeid": 19, "depth": 4, "split": "f2", "split_condition": 0.333333343, "yes": 37, "no": 38, "missing": 37 , "gain": 13.4101439, "cover": 27.4682102, "children": [
            { "nodeid": 37, "leaf": 0.0148672489 , "cover": 22.4987679 }, 
            { "nodeid": 38, "leaf": 0.100116447 , "cover": 4.96944237 }
          ]}, 
          { "nodeid": 20, "depth": 4, "split": "f6", "split_condition": 0.601103544, "yes": 39, "no": 40, "missing": 40 , "gain": 5.11991024, "cover": 48.4290123, "children": [
            { "nodeid": 39, "leaf": 0.00249823905 , "cover": 35.375 }, 
            { "nodeid": 40, "leaf": -0.0331134237 , "cover": 13.0540113 }
          ]}
        ]}, 
        { "nodeid": 10, "depth": 3, "split": "f7", "split_condition": 0.747280359, "yes": 21, "no": 22, "missing": 21 , "gain": 68.5963135, "cover": 215.595993, "children": [
          { "nodeid": 21, "depth": 4, "split": "f5", "split_condition": 0.148024946, "yes": 41, "no": 42, "missing": 42 , "gain": 9.39349365, "cover": 181.23172, "children": [
            { "nodeid": 41, "leaf": 0.0326182805 , "cover": 14.4300423 }, 
            { "nodeid": 42, "leaf": 0.0779251456 , "cover": 166.801682 }
          ]}, 
          { "nodeid": 22, "depth": 4, "split": "f8", "split_condition": 0.0500000007, "yes": 43, "no": 44, "missing": 44 , "gain": 4.17373562, "cover": 34.3642731, "children": [
            { "nodeid": 43, "leaf": 0.00757321203 , "cover": 26.0588627 }, 
            { "nodeid": 44, "leaf": -0.0312567428 , "cover": 8.30540943 }
          ]}
        ]}
      ]}
    ]}, 
    { "nodeid": 2, "depth": 1, "split": "f7", "split_condition": 0.787168741, "yes": 5, "no": 6, "missing": 6 , "gain": 152.003052, "cover": 1908.30298, "children": [
      { "nodeid": 5, "depth": 2, "split": "f0", "split_condition": 0.00333333341, "yes": 11, "no": 12, "missing": 11 , "gain": 120.300018, "cover": 721.832581, "children": [
        { "nodeid": 11, "depth": 3, "split": "f12", "split_condition": 2.00001001, "yes": 23, "no": 24, "missing": 24 , "gain": 10.3982544, "cover": 383.233612, "children": [
          { "nodeid": 23, "depth": 4, "split": "f6", "split_condition": 0.828464806, "yes": 45, "no": 46, "missing": 46 , "gain": 4.58856869, "cover": 36.0826187, "children": [
            { "nodeid": 45, "leaf": -0.00340624223 , "cover": 26.9349957 }, 
            { "nodeid": 46, "leaf": -0.043003954 , "cover": 9.14762306 }
          ]}, 
          { "nodeid": 24, "depth": 4, "split": "f8", "split_condition": 0.00077777775, "yes": 47, "no": 48, "missing": 48 , "gain": 6.67678833, "cover": 347.151001, "children": [
            { "nodeid": 47, "leaf": -0.0493172631 , "cover": 196.180054 }, 
            { "nodeid": 48, "leaf": -0.0346198156 , "cover": 150.970932 }
          ]}
        ]}, 
        { "nodeid": 12, "depth": 3, "split": "f12", "split_condition": 2.00001001, "yes": 25, "no": 26, "missing": 26 , "gain": 48.8787422, "cover": 338.598969, "children": [
          { "nodeid": 25, "depth": 4, "split": "f4", "split_condition": 0.553014576, "yes": 49, "no": 50, "missing": 50 , "gain": 7.69031906, "cover": 66.742775, "children": [
            { "nodeid": 49, "leaf": 0.00559425494 , "cover": 14.3529463 }, 
            { "nodeid": 50, "leaf": 0.0472461469 , "cover": 52.3898239 }
          ]}, 
          { "nodeid": 26, "depth": 4, "split": "f2", "split_condition": 0.0666666701, "yes": 51, "no": 52, "missing": 51 , "gain": 14.8508987, "cover": 271.856201, "children": [
            { "nodeid": 51, "leaf": -0.01294774 , "cover": 243.585846 }, 
            { "nodeid": 52, "leaf": 0.0247785505 , "cover": 28.2703495 }
          ]}
        ]}
      ]}, 
      { "nodeid": 6, "depth": 2, "split": "f6", "split_condition": 0.904901028, "yes": 13, "no": 14, "missing": 14 , "gain": 13.5272217, "cover": 1186.47034, "children": [
        { "nodeid": 13, "depth": 3, "split": "f7", "split_condition": 0.898186862, "yes": 27, "no": 28, "missing": 28 , "gain": 12.567627, "cover": 556.247375, "children": [
          { "nodeid": 27, "depth": 4, "split": "f1", "split_condition": 0.110700302, "yes": 53, "no": 54, "missing": 53 , "gain": 16.6697998, "cover": 325.157227, "children": [
            { "nodeid": 53, "leaf": -0.0440856479 , "cover": 249.368271 }, 
            { "nodeid": 54, "leaf": -0.0170030985 , "cover": 75.7889557 }
          ]}, 
          { "nodeid": 28, "depth": 4, "split": "f3", "split_condition": 0.157894731, "yes": 55, "no": 56, "missing": 56 , "gain": 0.384124756, "cover": 231.090118, "children": [
            { "nodeid": 55, "leaf": -0.0140769174 , "cover": 1.45228851 }, 
            { "nodeid": 56, "leaf": -0.0537243895 , "cover": 229.637833 }
          ]}
        ]}, 
        { "nodeid": 14, "depth": 3, "split": "f12", "split_condition": 2.00001001, "yes": 29, "no": 30, "missing": 30 , "gain": 0.547790527, "cover": 630.223022, "children": [
          { "nodeid": 29, "depth": 4, "split": "f7", "split_condition": 0.861087859, "yes": 57, "no": 58, "missing": 58 , "gain": 2.28139496, "cover": 78.1388702, "children": [
            { "nodeid": 57, "leaf": -0.0202750918 , "cover": 8.33437443 }, 
            { "nodeid": 58, "leaf": -0.0514589958 , "cover": 69.8044968 }
          ]}, 
          { "nodeid": 30, "depth": 4, "split": "f3", "split_condition": 0.210526317, "yes": 59, "no": 60, "missing": 60 , "gain": 0.354919434, "cover": 552.084106, "children": [
            { "nodeid": 59, "leaf": -0.0353382863 , "cover": 8.06721687 }, 
            { "nodeid": 60, "leaf": -0.0566943996 , "cover": 544.016907 }
          ]}
        ]}
      ]}
    ]}
  ]},
  { "nodeid": 0, "depth": 0, "split": "f6", "split_condition": 0.642323911, "yes": 1, "no": 2, "missing": 1 , "gain": 601.185486, "cover": 2296.38452, "children": [
    { "nodeid": 1, "depth": 1, "split": "f8", "split_condition": 0.00999999978, "yes": 3, "no": 4, "missing": 3 , "gain": 127.752373, "cover": 451.251923, "children": [
      { "nodeid": 3, "depth": 2, "split": "f10", "split_condition": 2.00001001, "yes": 7, "no": 8, "missing": 8 , "gain": 17.5834217, "cover": 145.723801, "children": [
        { "nodeid": 7, "depth": 3, "split": "f0", "split_condition": 0.0225716196, "yes": 15, "no": 16, "missing": 15 , "gain": 7.95606756, "cover": 29.2946148, "children": [
          { "nodeid": 15, "depth": 4, "split": "f7", "split_condition": 0.640446305, "yes": 31, "no": 32, "missing": 32 , "gain": 4.21676683, "cover": 27.8848915, "children": [
            { "nodeid": 31, "leaf": 0.0205146596 , "cover": 24.6265621 }, 
            { "nodeid": 32, "leaf": -0.0336459205 , "cover": 3.25832939 }
          ]}, 
          { "nodeid": 16, "leaf": 0.108842947 , "cover": 1.40972161 }
        ]}, 
        { "nodeid": 8, "depth": 3, "split": "f11", "split_condition": 2.00001001, "yes": 17, "no": 18, "missing": 18 , "gain": 6.26900291, "cover": 116.429184, "children": [
          { "nodeid": 17, "depth": 4, "split": "f0", "split_condition": 0.0666666701, "yes": 33, "no": 34, "missing": 34 , "gain": 5.63210106, "cover": 66.6583023, "children": [
            { "nodeid": 33, "leaf": -0.0338352472 , "cover": 65.2175827 }, 
            { "nodeid": 34, "leaf": 0.0461372845 , "cover": 1.44072092 }
          ]}, 
          { "nodeid": 18, "depth": 4, "split": "f7", "split_condition": 0.578521609, "yes": 35, "no": 36, "missing": 36 , "gain": 5.70798016, "cover": 49.7708855, "children": [
            { "nodeid": 35, "leaf": 0.00156312936 , "cover": 38.4895973 }, 
            { "nodeid": 36, "leaf": -0.0375490822 , "cover": 11.2812901 }
          ]}
        ]}
      ]}, 
      { "nodeid": 4, "depth": 2, "split": "f11", "split_condition": 2.00001001, "yes": 9, "no": 10, "missing": 10 , "gain": 58.1113434, "cover": 305.528137, "children": [
        { "nodeid": 9, "depth": 3, "split": "f5", "split_condition": 0.367151767, "yes": 19, "no": 20, "missing": 20 , "gain": 11.2635126, "cover": 78.2144928, "children": [
          { "nodeid": 19, "depth": 4, "split": "f7", "split_condition": 0.42231521, "yes": 37, "no": 38, "missing": 38 , "gain": 11.9987602, "cover": 31.4737492, "children": [
            { "nodeid": 37, "leaf": 0.0461755805 , "cover": 23.9596729 }, 
            { "nodeid": 38, "leaf": -0.0235126652 , "cover": 7.51407528 }
          ]}, 
          { "nodeid": 20, "depth": 4, "split": "f2", "split_condition": 0.344469219, "yes": 39, "no": 40, "missing": 39 , "gain": 4.41539812, "cover": 46.7407455, "children": [
            { "nodeid": 39, "leaf": -0.0148084303 , "cover": 40.8707581 }, 
            { "nodeid": 40, "leaf": 0.0285905488 , "cover": 5.86998701 }
          ]}
        ]}, 
        { "nodeid": 10, "depth": 3, "split": "f7", "split_condition": 0.730265021, "yes": 21, "no": 22, "missing": 21 , "gain": 58.6983337, "cover": 227.313644, "children": [
          { "nodeid": 21, "depth": 4, "split": "f0", "split_condition": 0.0388166793, "yes": 41, "no": 42, "missing": 42 , "gain": 11.3219604, "cover": 188.390182, "children": [
            { "nodeid": 41, "leaf": 0.043986056 , "cover": 43.3830681 }, 
            { "nodeid": 42, "leaf": 0.0750912055 , "cover": 145.007111 }
          ]}, 
          { "nodeid": 22, "depth": 4, "split": "f8", "split_condition": 0.0500000007, "yes": 43, "no": 44, "missing": 44 , "gain": 6.75348711, "cover": 38.9234619, "children": [
            { "nodeid": 43, "leaf": 0.0125289252 , "cover": 29.6166954 }, 
            { "nodeid": 44, "leaf": -0.0342647545 , "cover": 9.30676556 }
          ]}
        ]}
      ]}
    ]}, 
    { "nodeid": 2, "depth": 1, "split": "f7", "split_condition": 0.787168741, "yes": 5, "no": 6, "missing": 6 , "gain": 146.390869, "cover": 1845.13269, "children": [
      { "nodeid": 5, "depth": 2, "split": "f0", "split_condition": 0.00333333341, "yes": 11, "no": 12, "missing": 11 , "gain": 110.503677, "cover": 702.521423, "children": [
        { "nodeid": 11, "depth": 3, "split": "f12", "split_condition": 2.00001001, "yes": 23, "no": 24, "missing": 24 , "gain": 10.0050049, "cover": 370.25943, "children": [
          { "nodeid": 23, "depth": 4, "split": "f6", "split_condition": 0.828464806, "yes": 45, "no": 46, "missing": 46 , "gain": 4.35910463, "cover": 35.7440567, "children": [
            { "nodeid": 45, "leaf": -0.00324956025 , "cover": 26.871851 }, 
            { "nodeid": 46, "leaf": -0.0422413759 , "cover": 8.87220669 }
          ]}, 
          { "nodeid": 24, "depth": 4, "split": "f8", "split_condition": 0.00077777775, "yes": 47, "no": 48, "missing": 48 , "gain": 6.75378418, "cover": 334.51535, "children": [
            { "nodeid": 47, "leaf": -0.0485758111 , "cover": 188.322159 }, 
            { "nodeid": 48, "leaf": -0.0335668251 , "cover": 146.193207 }
          ]}
        ]}, 
        { "nodeid": 12, "depth": 3, "split": "f12", "split_condition": 2.00001001, "yes": 25, "no": 26, "missing": 26 , "gain": 45.7238884, "cover": 332.262024, "children": [
          { "nodeid": 25, "depth": 4, "split": "f7", "split_condition": 0.748675048, "yes": 49, "no": 50, "missing": 50 , "gain": 7.9425087, "cover": 67.8011398, "children": [
            { "nodeid": 49, "leaf": 0.0442481712 , "cover": 56.1312981 }, 
            { "nodeid": 50, "leaf": -0.000938976358 , "cover": 11.6698389 }
          ]}, 
          { "nodeid": 26, "depth": 4, "split": "f9", "split_condition": 2.00001001, "yes": 51, "no": 52, "missing": 52 , "gain": 12.0944576, "cover": 264.460876, "children": [
            { "nodeid": 51, "leaf": -0.000750186678 , "cover": 163.704865 }, 
            { "nodeid": 52, "leaf": -0.0227058902 , "cover": 100.756012 }
          ]}
        ]}
      ]}, 
      { "nodeid": 6, "depth": 2, "split": "f6", "split_condition": 0.904901028, "yes": 13, "no": 14, "missing": 14 , "gain": 13.5545654, "cover": 1142.61121, "children": [
        { "nodeid": 13, "depth": 3, "split": "f7", "split_condition": 0.898186862, "yes": 27, "no": 28, "missing": 28 , "gain": 12.3554382, "cover": 537.534241, "children": [
          { "nodeid": 27, "depth": 4, "split": "f1", "split_condition": 0.108000003, "yes": 53, "no": 54, "missing": 53 , "gain": 15.6065063, "cover": 315.903412, "children": [
            { "nodeid": 53, "leaf": -0.0433760397 , "cover": 239.666382 }, 
            { "nodeid": 54, "leaf": -0.0170940682 , "cover": 76.23703 }
          ]}, 
          { "nodeid": 28, "depth": 4, "split": "f3", "split_condition": 0.157894731, "yes": 55, "no": 56, "missing": 56 , "gain": 0.380355835, "cover": 221.630814, "children": [
            { "nodeid": 55, "leaf": -0.0137442676 , "cover": 1.437644 }, 
            { "nodeid": 56, "leaf": -0.0531368665 , "cover": 220.193161 }
          ]}
        ]}, 
        { "nodeid": 14, "depth": 3, "split": "f12", "split_condition": 2.00001001, "yes": 29, "no": 30, "missing": 30 , "gain": 0.603942871, "cover": 605.077026, "children": [
          { "nodeid": 29, "depth": 4, "split": "f7", "split_condition": 0.861087859, "yes": 57, "no": 58, "missing": 58 , "gain": 2.26145935, "cover": 75.438797, "children": [
            { "nodeid": 57, "leaf": -0.0196254309 , "cover": 8.21591854 }, 
            { "nodeid": 58, "leaf": -0.0508225225 , "cover": 67.2228775 }
          ]}, 
          { "nodeid": 30, "depth": 4, "split": "f3", "split_condition": 0.210526317, "yes": 59, "no": 60, "missing": 60 , "gain": 0.385437012, "cover": 529.638184, "children": [
            { "nodeid": 59, "leaf": -0.0345575735 , "cover": 7.86477566 }, 
            { "nodeid": 60, "leaf": -0.0562173314 , "cover": 521.773438 }
          ]}
        ]}
      ]}
    ]}
  ]},
  { "nodeid": 0, "depth": 0, "split": "f6", "split_condition": 0.642323911, "yes": 1, "no": 2, "missing": 1 , "gain": 559.222412, "cover": 2250.79517, "children": [
    { "nodeid": 1, "depth": 1, "split": "f8", "split_condition": 0.00999999978, "yes": 3, "no": 4, "missing": 3 , "gain": 111.417984, "cover": 457.61911, "children": [
      { "nodeid": 3, "depth": 2, "split": "f11", "split_condition": 2.00001001, "yes": 7, "no": 8, "missing": 8 , "gain": 16.2236176, "cover": 144.289673, "children": [
        { "nodeid": 7, "depth": 3, "split": "f0", "split_condition": 0.0666666701, "yes": 15, "no": 16, "missing": 16 , "gain": 5.2972641, "cover": 65.1220703, "children": [
          { "nodeid": 15, "depth": 4, "split": "f6", "split_condition": 0.536514103, "yes": 31, "no": 32, "missing": 32 , "gain": 3.18115616, "cover": 63.6380196, "children": [
            { "nodeid": 31, "leaf": -0.0174607914 , "cover": 23.8685017 }, 
            { "nodeid": 32, "leaf": -0.041630879 , "cover": 39.7695198 }
          ]}, 
          { "nodeid": 16, "leaf": 0.0439744703 , "cover": 1.48405015 }
        ]}, 
        { "nodeid": 8, "depth": 3, "split": "f7", "split_condition": 0.806415617, "yes": 17, "no": 18, "missing": 18 , "gain": 9.43551826, "cover": 79.1675949, "children": [
          { "nodeid": 17, "depth": 4, "split": "f0", "split_condition": 0.00933333673, "yes": 33, "no": 34, "missing": 33 , "gain": 14.3292351, "cover": 71.2393646, "children": [
            { "nodeid": 33, "leaf": -0.00305528869 , "cover": 55.980999 }, 
            { "nodeid": 34, "leaf": 0.0502196066 , "cover": 15.2583628 }
          ]}, 
          { "nodeid": 18, "depth": 4, "split": "f7", "split_condition": 0.974058568, "yes": 35, "no": 36, "missing": 36 , "gain": 0.546656132, "cover": 7.92823458, "children": [
            { "nodeid": 35, "leaf": -0.050274469 , "cover": 6.85869169 }, 
            { "nodeid": 36, "leaf": -0.00582401175 , "cover": 1.06954253 }
          ]}
        ]}
      ]}, 
      { "nodeid": 4, "depth": 2, "split": "f11", "split_condition": 2.00001001, "yes": 9, "no": 10, "missing": 10 , "gain": 49.2281036, "cover": 313.329437, "children": [
        { "nodeid": 9, "depth": 3, "split": "f6", "split_condition": 0.486205786, "yes": 19, "no": 20, "missing": 20 , "gain": 10.6341581, "cover": 78.5207138, "children": [
          { "nodeid": 19, "depth": 4, "split": "f2", "split_condition": 0.333333343, "yes": 37, "no": 38, "missing": 37 , "gain": 10.9309702, "cover": 25.4853382, "children": [
            { "nodeid": 37, "leaf": 0.015064843 , "cover": 21.0262623 }, 
            { "nodeid": 38, "leaf": 0.0955334827 , "cover": 4.4590764 }
          ]}, 
          { "nodeid": 20, "depth": 4, "split": "f7", "split_condition": 0.452998608, "yes": 39, "no": 40, "missing": 40 , "gain": 5.99751329, "cover": 53.0353775, "children": [
            { "nodeid": 39, "leaf": 0.00554175768 , "cover": 35.229248 }, 
            { "nodeid": 40, "leaf": -0.0293075591 , "cover": 17.8061295 }
          ]}
        ]}, 
        { "nodeid": 10, "depth": 3, "split": "f7", "split_condition": 0.747280359, "yes": 21, "no": 22, "missing": 21 , "gain": 49.7676392, "cover": 234.808716, "children": [
          { "nodeid": 21, "depth": 4, "split": "f0", "split_condition": 0.0388166793, "yes": 41, "no": 42, "missing": 42 , "gain": 8.5838623, "cover": 199.488708, "children": [
            { "nodeid": 41, "leaf": 0.040740151 , "cover": 44.5458717 }, 
            { "nodeid": 42, "leaf": 0.0675068498 , "cover": 154.942841 }
          ]}, 
          { "nodeid": 22, "depth": 4, "split": "f7", "split_condition": 0.851046026, "yes": 43, "no": 44, "missing": 44 , "gain": 4.48961496, "cover": 35.3200073, "children": [
            { "nodeid": 43, "leaf": 0.0171208717 , "cover": 15.4041882 }, 
            { "nodeid": 44, "leaf": -0.0178294834 , "cover": 19.9158192 }
          ]}
        ]}
      ]}
    ]}, 
    { "nodeid": 2, "depth": 1, "split": "f7", "split_condition": 0.787168741, "yes": 5, "no": 6, "missing": 6 , "gain": 143.528442, "cover": 1793.17615, "children": [
      { "nodeid": 5, "depth": 2, "split": "f0", "split_condition": 0.00255000009, "yes": 11, "no": 12, "missing": 11 , "gain": 104.433174, "cover": 691.910461, "children": [
        { "nodeid": 11, "depth": 3, "split": "f12", "split_condition": 2.00001001, "yes": 23, "no": 24, "missing": 24 , "gain": 11.6638489, "cover": 339.127869, "children": [
          { "nodeid": 23, "depth": 4, "split": "f0", "split_condition": 0.00134166668, "yes": 45, "no": 46, "missing": 46 , "gain": 4.17984104, "cover": 31.0955029, "children": [
            { "nodeid": 45, "leaf": -0.0223505888 , "cover": 21.2492027 }, 
            { "nodeid": 46, "leaf": 0.0156876054 , "cover": 9.84630013 }
          ]}, 
          { "nodeid": 24, "depth": 4, "split": "f3", "split_condition": 0.315789461, "yes": 47, "no": 48, "missing": 48 , "gain": 5.21972656, "cover": 308.032379, "children": [
            { "nodeid": 47, "leaf": -0.00619933708 , "cover": 9.84710312 }, 
            { "nodeid": 48, "leaf": -0.0438863598 , "cover": 298.185272 }
          ]}
        ]}, 
        { "nodeid": 12, "depth": 3, "split": "f12", "split_condition": 2.00001001, "yes": 25, "no": 26, "missing": 26 , "gain": 35.952507, "cover": 352.782593, "children": [
          { "nodeid": 25, "depth": 4, "split": "f0", "split_condition": 0.0399999991, "yes": 49, "no": 50, "missing": 50 , "gain": 10.5609207, "cover": 73.712738, "children": [
            { "nodeid": 49, "leaf": 0.0161102377 , "cover": 49.5755806 }, 
            { "nodeid": 50, "leaf": 0.056419827 , "cover": 24.1371555 }
          ]}, 
          { "nodeid": 26, "depth": 4, "split": "f9", "split_condition": 2.00001001, "yes": 51, "no": 52, "missing": 52 , "gain": 13.4655132, "cover": 279.069855, "children": [
            { "nodeid": 51, "leaf": -0.000559622073 , "cover": 173.582779 }, 
            { "nodeid": 52, "leaf": -0.0231475774 , "cover": 105.487068 }
          ]}
        ]}
      ]}, 
      { "nodeid": 6, "depth": 2, "split": "f6", "split_condition": 0.904901028, "yes": 13, "no": 14, "missing": 14 , "gain": 13.7794189, "cover": 1101.26562, "children": [
        { "nodeid": 13, "depth": 3, "split": "f7", "split_condition": 0.898186862, "yes": 27, "no": 28, "missing": 28 , "gain": 12.4055176, "cover": 520.506287, "children": [
          { "nodeid": 27, "depth": 4, "split": "f1", "split_condition": 0.108000003, "yes": 53, "no": 54, "missing": 53 , "gain": 15.1831665, "cover": 307.448547, "children": [
            { "nodeid": 53, "leaf": -0.0425841734 , "cover": 232.128052 }, 
            { "nodeid": 54, "leaf": -0.0164507255 , "cover": 75.3204956 }
          ]}, 
          { "nodeid": 28, "depth": 4, "split": "f3", "split_condition": 0.157894731, "yes": 55, "no": 56, "missing": 56 , "gain": 0.377304077, "cover": 213.057709, "children": [
            { "nodeid": 55, "leaf": -0.0134192649 , "cover": 1.42342305 }, 
            { "nodeid": 56, "leaf": -0.0525781102 , "cover": 211.634293 }
          ]}
        ]}, 
        { "nodeid": 14, "depth": 3, "split": "f12", "split_condition": 2.00001001, "yes": 29, "no": 30, "missing": 30 , "gain": 0.66204834, "cover": 580.759399, "children": [
          { "nodeid": 29, "depth": 4, "split": "f7", "split_condition": 0.861087859, "yes": 57, "no": 58, "missing": 58 , "gain": 2.24186707, "cover": 72.8306808, "children": [
            { "nodeid": 57, "leaf": -0.0189913064 , "cover": 8.10207272 }, 
            { "nodeid": 58, "leaf": -0.0502006225 , "cover": 64.7286148 }
          ]}, 
          { "nodeid": 30, "depth": 4, "split": "f3", "split_condition": 0.210526317, "yes": 59, "no": 60, "missing": 60 , "gain": 0.416687012, "cover": 507.928711, "children": [
            { "nodeid": 59, "leaf": -0.0337879211 , "cover": 7.6695118 }, 
            { "nodeid": 60, "leaf": -0.05576488 , "cover": 500.259216 }
          ]}
        ]}
      ]}
    ]}
  ]},
  { "nodeid": 0, "depth": 0, "split": "f6", "split_condition": 0.642323911, "yes": 1, "no": 2, "missing": 1 , "gain": 520.369873, "cover": 2206.26782, "children": [
    { "nodeid": 1, "depth": 1, "split": "f8", "split_condition": 0.00999999978, "yes": 3, "no": 4, "missing": 3 , "gain": 97.7566299, "cover": 463.299866, "children": [
      { "nodeid": 3, "depth": 2, "split": "f10", "split_condition": 2.00001001, "yes": 7, "no": 8, "missing": 8 , "gain": 15.465064, "cover": 142.946487, "children": [
        { "nodeid": 7, "depth": 3, "split": "f0", "split_condition": 0.0187890101, "yes": 15, "no": 16, "missing": 15 , "gain": 7.18752766, "cover": 29.7354527, "children": [
          { "nodeid": 15, "depth": 4, "split": "f4", "split_condition": 0.666666687, "yes": 31, "no": 32, "missing": 32 , "gain": 5.59397507, "cover": 27.3587341, "children": [
            { "nodeid": 31, "leaf": 0.0192703363 , "cover": 24.3140926 }, 
            { "nodeid": 32, "leaf": -0.044313442 , "cover": 3.04464197 }
          ]}, 
          { "nodeid": 16, "leaf": 0.0888612345 , "cover": 2.37671733 }
        ]}, 
        { "nodeid": 8, "depth": 3, "split": "f11", "split_condition": 2.00001001, "yes": 17, "no": 18, "missing": 18 , "gain": 5.37895012, "cover": 113.211037, "children": [
          { "nodeid": 17, "depth": 4, "split": "f0", "split_condition": 0.0666666701, "yes": 33, "no": 34, "missing": 34 , "gain": 4.98249054, "cover": 63.6628036, "children": [
            { "nodeid": 33, "leaf": -0.0321404897 , "cover": 62.1371422 }, 
            { "nodeid": 34, "leaf": 0.0419399068 , "cover": 1.52566266 }
          ]}, 
          { "nodeid": 18, "depth": 4, "split": "f7", "split_condition": 0.578521609, "yes": 35, "no": 36, "missing": 36 , "gain": 5.17752934, "cover": 49.5482292, "children": [
            { "nodeid": 35, "leaf": 0.0011908192 , "cover": 38.6717644 }, 
            { "nodeid": 36, "leaf": -0.0365241393 , "cover": 10.8764658 }
          ]}
        ]}
      ]}, 
      { "nodeid": 4, "depth": 2, "split": "f7", "split_condition": 0.76011157, "yes": 9, "no": 10, "missing": 9 , "gain": 42.0955658, "cover": 320.353394, "children": [
        { "nodeid": 9, "depth": 3, "split": "f11", "split_condition": 2.00001001, "yes": 19, "no": 20, "missing": 20 , "gain": 44.3435516, "cover": 280.404297, "children": [
          { "nodeid": 19, "depth": 4, "split": "f6", "split_condition": 0.601103544, "yes": 37, "no": 38, "missing": 38 , "gain": 9.81803417, "cover": 70.9486465, "children": [
            { "nodeid": 37, "leaf": 0.0189341605 , "cover": 58.3841248 }, 
            { "nodeid": 38, "leaf": -0.0283129662 , "cover": 12.564518 }
          ]}, 
          { "nodeid": 20, "depth": 4, "split": "f7", "split_condition": 0.594142258, "yes": 39, "no": 40, "missing": 39 , "gain": 8.79931641, "cover": 209.455643, "children": [
            { "nodeid": 39, "leaf": 0.0609476082 , "cover": 173.134674 }, 
            { "nodeid": 40, "leaf": 0.0323483311 , "cover": 36.3209572 }
          ]}
        ]}, 
        { "nodeid": 10, "depth": 3, "split": "f1", "split_condition": 0.560000002, "yes": 21, "no": 22, "missing": 21 , "gain": 5.086236, "cover": 39.9491043, "children": [
          { "nodeid": 21, "depth": 4, "split": "f7", "split_condition": 0.851046026, "yes": 41, "no": 42, "missing": 42 , "gain": 9.04170322, "cover": 22.8328133, "children": [
            { "nodeid": 41, "leaf": 0.0148642855 , "cover": 8.49636364 }, 
            { "nodeid": 42, "leaf": -0.0480354503 , "cover": 14.3364487 }
          ]}, 
          { "nodeid": 22, "depth": 4, "split": "f0", "split_condition": 0.275308251, "yes": 43, "no": 44, "missing": 44 , "gain": 6.03275871, "cover": 17.1162891, "children": [
            { "nodeid": 43, "leaf": 0.0244123507 , "cover": 14.0467634 }, 
            { "nodeid": 44, "leaf": -0.0444334783 , "cover": 3.0695262 }
          ]}
        ]}
      ]}
    ]}, 
    { "nodeid": 2, "depth": 1, "split": "f7", "split_condition": 0.787168741, "yes": 5, "no": 6, "missing": 6 , "gain": 140.714111, "cover": 1742.9679, "children": [
      { "nodeid": 5, "depth": 2, "split": "f0", "split_condition": 0.00333333341, "yes": 11, "no": 12, "missing": 11 , "gain": 98.8834457, "cover": 681.611267, "children": [
        { "nodeid": 11, "depth": 3, "split": "f12", "split_condition": 2.00001001, "yes": 23, "no": 24, "missing": 24 , "gain": 9.25999451, "cover": 349.818298, "children": [
          { "nodeid": 23, "depth": 4, "split": "f6", "split_condition": 0.828464806, "yes": 45, "no": 46, "missing": 46 , "gain": 4.13333988, "cover": 35.2401085, "children": [
            { "nodeid": 45, "leaf": -0.00283581461 , "cover": 26.7032814 }, 
            { "nodeid": 46, "leaf": -0.0413044617 , "cover": 8.53682613 }
          ]}, 
          { "nodeid": 24, "depth": 4, "split": "f8", "split_condition": 0.00077777775, "yes": 47, "no": 48, "missing": 48 , "gain": 6.91851807, "cover": 314.578186, "children": [
            { "nodeid": 47, "leaf": -0.0472785681 , "cover": 175.858154 }, 
            { "nodeid": 48, "leaf": -0.0317038782 , "cover": 138.720032 }
          ]}
        ]}, 
        { "nodeid": 12, "depth": 3, "split": "f12", "split_condition": 2.00001001, "yes": 25, "no": 26, "missing": 26 , "gain": 36.467762, "cover": 331.792969, "children": [
          { "nodeid": 25, "depth": 4, "split": "f2", "split_condition": 0.266666681, "yes": 49, "no": 50, "missing": 49 , "gain": 6.91569328, "cover": 70.7098618, "children": [
            { "nodeid": 49, "leaf": 0.02618712 , "cover": 64.5660706 }, 
            { "nodeid": 50, "leaf": 0.0794719756 , "cover": 6.14379454 }
          ]}, 
          { "nodeid": 26, "depth": 4, "split": "f2", "split_condition": 0.0666666701, "yes": 51, "no": 52, "missing": 51 , "gain": 11.5216169, "cover": 261.083099, "children": [
            { "nodeid": 51, "leaf": -0.0119439289 , "cover": 234.343765 }, 
            { "nodeid": 52, "leaf": 0.0221675448 , "cover": 26.7393341 }
          ]}
        ]}
      ]}, 
      { "nodeid": 6, "depth": 2, "split": "f6", "split_condition": 0.904901028, "yes": 13, "no": 14, "missing": 14 , "gain": 14.0161133, "cover": 1061.35669, "children": [
        { "nodeid": 13, "depth": 3, "split": "f7", "split_condition": 0.898186862, "yes": 27, "no": 28, "missing": 28 , "gain": 12.4568176, "cover": 504.088806, "children": [
          { "nodeid": 27, "depth": 4, "split": "f1", "split_condition": 0.0900000036, "yes": 53, "no": 54, "missing": 53 , "gain": 14.8108826, "cover": 299.309204, "children": [
            { "nodeid": 53, "leaf": -0.0422182754 , "cover": 217.783905 }, 
            { "nodeid": 54, "leaf": -0.0169442389 , "cover": 81.5252838 }
          ]}, 
          { "nodeid": 28, "depth": 4, "split": "f3", "split_condition": 0.157894731, "yes": 55, "no": 56, "missing": 56 , "gain": 0.374572754, "cover": 204.779633, "children": [
            { "nodeid": 55, "leaf": -0.0131017435 , "cover": 1.40961313 }, 
            { "nodeid": 56, "leaf": -0.0520352796 , "cover": 203.37001 }
          ]}
        ]}, 
        { "nodeid": 14, "depth": 3, "split": "f12", "split_condition": 2.00001001, "yes": 29, "no": 30, "missing": 30 , "gain": 0.722045898, "cover": 557.267822, "children": [
          { "nodeid": 29, "depth": 4, "split": "f7", "split_condition": 0.861087859, "yes": 57, "no": 58, "missing": 58 , "gain": 2.22234726, "cover": 70.3138046, "children": [
            { "nodeid": 57, "leaf": -0.0183725692 , "cover": 7.9926877 }, 
            { "nodeid": 58, "leaf": -0.0495913625 , "cover": 62.3211136 }
          ]}, 
          { "nodeid": 30, "depth": 4, "split": "f3", "split_condition": 0.210526317, "yes": 59, "no": 60, "missing": 60 , "gain": 0.448486328, "cover": 486.95401, "children": [
            { "nodeid": 59, "leaf": -0.0330289081 , "cover": 7.48127651 }, 
            { "nodeid": 60, "leaf": -0.0553349219 , "cover": 479.472748 }
          ]}
        ]}
      ]}
    ]}
  ]},
  { "nodeid": 0, "depth": 0, "split": "f6", "split_condition": 0.642323911, "yes": 1, "no": 2, "missing": 1 , "gain": 484.235718, "cover": 2163.05005, "children": [
    { "nodeid": 1, "depth": 1, "split": "f8", "split_condition": 0.00999999978, "yes": 3, "no": 4, "missing": 3 , "gain": 85.8236389, "cover": 468.522522, "children": [
      { "nodeid": 3, "depth": 2, "split": "f12", "split_condition": 2.00001001, "yes": 7, "no": 8, "missing": 8 , "gain": 14.2106171, "cover": 141.617264, "children": [
        { "nodeid": 7, "depth": 3, "split": "f3", "split_condition": 0.631578922, "yes": 15, "no": 16, "missing": 16 , "gain": 3.77993011, "cover": 19.6352577, "children": [
          { "nodeid": 15, "depth": 4, "split": "f6", "split_condition": 0.527101576, "yes": 31, "no": 32, "missing": 32 , "gain": 2.22794914, "cover": 8.78385162, "children": [
            { "nodeid": 31, "leaf": 0.0280660372 , "cover": 3.64145112 }, 
            { "nodeid": 32, "leaf": -0.0178506691 , "cover": 5.14240026 }
          ]}, 
          { "nodeid": 16, "depth": 4, "split": "f6", "split_condition": 0.566861391, "yes": 33, "no": 34, "missing": 34 , "gain": 9.518507, "cover": 10.8514061, "children": [
            { "nodeid": 33, "leaf": 0.100726619 , "cover": 3.72774601 }, 
            { "nodeid": 34, "leaf": 0.00796173792 , "cover": 7.12366009 }
          ]}
        ]}, 
        { "nodeid": 8, "depth": 3, "split": "f11", "split_condition": 2.00001001, "yes": 17, "no": 18, "missing": 18 , "gain": 6.51302052, "cover": 121.982002, "children": [
          { "nodeid": 17, "depth": 4, "split": "f0", "split_condition": 0.0666666701, "yes": 35, "no": 36, "missing": 36 , "gain": 4.68331909, "cover": 62.2428093, "children": [
            { "nodeid": 35, "leaf": -0.0313013159 , "cover": 60.6772346 }, 
            { "nodeid": 36, "leaf": 0.040024139 , "cover": 1.56557512 }
          ]}, 
          { "nodeid": 18, "depth": 4, "split": "f8", "split_condition": 0.00133333332, "yes": 37, "no": 38, "missing": 37 , "gain": 6.63966656, "cover": 59.739193, "children": [
            { "nodeid": 37, "leaf": -0.0266304743 , "cover": 22.4629459 }, 
            { "nodeid": 38, "leaf": 0.00718335016 , "cover": 37.2762451 }
          ]}
        ]}
      ]}, 
      { "nodeid": 4, "depth": 2, "split": "f7", "split_condition": 0.76011157, "yes": 9, "no": 10, "missing": 9 , "gain": 36.6304626, "cover": 326.905243, "children": [
        { "nodeid": 9, "depth": 3, "split": "f11", "split_condition": 2.00001001, "yes": 19, "no": 20, "missing": 20 , "gain": 37.7681274, "cover": 287.216187, "children": [
          { "nodeid": 19, "depth": 4, "split": "f0", "split_condition": 0.106666669, "yes": 39, "no": 40, "missing": 40 , "gain": 9.50051975, "cover": 71.424324, "children": [
            { "nodeid": 39, "leaf": -0.000805709918 , "cover": 54.1560287 }, 
            { "nodeid": 40, "leaf": 0.0408778265 , "cover": 17.2682972 }
          ]}, 
          { "nodeid": 20, "depth": 4, "split": "f2", "split_condition": 0.166666672, "yes": 41, "no": 42, "missing": 41 , "gain": 7.86924744, "cover": 215.79187, "children": [
            { "nodeid": 41, "leaf": 0.0434235334 , "cover": 131.634262 }, 
            { "nodeid": 42, "leaf": 0.0641793087 , "cover": 84.157608 }
          ]}
        ]}, 
        { "nodeid": 10, "depth": 3, "split": "f1", "split_condition": 0.560000002, "yes": 21, "no": 22, "missing": 21 , "gain": 4.67503071, "cover": 39.6890488, "children": [
          { "nodeid": 21, "depth": 4, "split": "f7", "split_condition": 0.851046026, "yes": 43, "no": 44, "missing": 44 , "gain": 8.5569725, "cover": 22.4306717, "children": [
            { "nodeid": 43, "leaf": 0.0140703795 , "cover": 8.58115864 }, 
            { "nodeid": 44, "leaf": -0.0473313034 , "cover": 13.8495131 }
          ]}, 
          { "nodeid": 22, "depth": 4, "split": "f0", "split_condition": 0.275308251, "yes": 45, "no": 46, "missing": 46 , "gain": 5.57912636, "cover": 17.258379, "children": [
            { "nodeid": 45, "leaf": 0.0229032263 , "cover": 14.2833004 }, 
            { "nodeid": 46, "leaf": -0.0438001156 , "cover": 2.97507858 }
          ]}
        ]}
      ]}
    ]}, 
    { "nodeid": 2, "depth": 1, "split": "f7", "split_condition": 0.787168741, "yes": 5, "no": 6, "missing": 6 , "gain": 137.880615, "cover": 1694.52771, "children": [
      { "nodeid": 5, "depth": 2, "split": "f0", "split_condition": 0.00255000009, "yes": 11, "no": 12, "missing": 11 , "gain": 93.5943909, "cover": 671.653931, "children": [
        { "nodeid": 11, "depth": 3, "split": "f12", "split_condition": 2.00001001, "yes": 23, "no": 24, "missing": 24 , "gain": 11.0143738, "cover": 319.919678, "children": [
          { "nodeid": 23, "depth": 4, "split": "f0", "split_condition": 0.00134166668, "yes": 47, "no": 48, "missing": 48 , "gain": 3.82137346, "cover": 30.603056, "children": [
            { "nodeid": 47, "leaf": -0.021168679 , "cover": 20.7073803 }, 
            { "nodeid": 48, "leaf": 0.0152785359 , "cover": 9.89567471 }
          ]}, 
          { "nodeid": 24, "depth": 4, "split": "f3", "split_condition": 0.315789461, "yes": 49, "no": 50, "missing": 50 , "gain": 5.18518066, "cover": 289.31662, "children": [
            { "nodeid": 49, "leaf": -0.00442085648 , "cover": 9.54067516 }, 
            { "nodeid": 50, "leaf": -0.0423970222 , "cover": 279.77594 }
          ]}
        ]}, 
        { "nodeid": 12, "depth": 3, "split": "f10", "split_condition": 2.00001001, "yes": 25, "no": 26, "missing": 26 , "gain": 29.3912048, "cover": 351.734253, "children": [
          { "nodeid": 25, "depth": 4, "split": "f2", "split_condition": 0.333333343, "yes": 51, "no": 52, "missing": 51 , "gain": 15.7571793, "cover": 102.381874, "children": [
            { "nodeid": 51, "leaf": 0.0157988667 , "cover": 95.4179459 }, 
            { "nodeid": 52, "leaf": 0.0894054845 , "cover": 6.96392059 }
          ]}, 
          { "nodeid": 26, "depth": 4, "split": "f9", "split_condition": 2.00001001, "yes": 53, "no": 54, "missing": 54 , "gain": 10.2593021, "cover": 249.352371, "children": [
            { "nodeid": 53, "leaf": -0.00151981623 , "cover": 146.280396 }, 
            { "nodeid": 54, "leaf": -0.022068508 , "cover": 103.071991 }
          ]}
        ]}
      ]}, 
      { "nodeid": 6, "depth": 2, "split": "f6", "split_condition": 0.904901028, "yes": 13, "no": 14, "missing": 14 , "gain": 14.2630005, "cover": 1022.87372, "children": [
        { "nodeid": 13, "depth": 3, "split": "f7", "split_condition": 0.898186862, "yes": 27, "no": 28, "missing": 28 , "gain": 12.5080566, "cover": 488.277344, "children": [
          { "nodeid": 27, "depth": 4, "split": "f1", "split_condition": 0.0900000036, "yes": 55, "no": 56, "missing": 55 , "gain": 14.4075623, "cover": 291.483398, "children": [
            { "nodeid": 55, "leaf": -0.0414455682 , "cover": 210.945358 }, 
            { "nodeid": 56, "leaf": -0.0163074527 , "cover": 80.5380402 }
          ]}, 
          { "nodeid": 28, "depth": 4, "split": "f3", "split_condition": 0.157894731, "yes": 57, "no": 58, "missing": 58 , "gain": 0.372009277, "cover": 196.793945, "children": [
            { "nodeid": 57, "leaf": -0.0127915367 , "cover": 1.39620221 }, 
            { "nodeid": 58, "leaf": -0.0515064299 , "cover": 195.397736 }
          ]}
        ]}, 
        { "nodeid": 14, "depth": 3, "split": "f12", "split_condition": 2.00001001, "yes": 29, "no": 30, "missing": 30 , "gain": 0.783813477, "cover": 534.596375, "children": [
          { "nodeid": 29, "depth": 4, "split": "f7", "split_condition": 0.861087859, "yes": 59, "no": 60, "missing": 60 , "gain": 2.2025795, "cover": 67.8870544, "children": [
            { "nodeid": 59, "leaf": -0.0177690852 , "cover": 7.88761711 }, 
            { "nodeid": 60, "leaf": -0.0489929244 , "cover": 59.9994392 }
          ]}, 
          { "nodeid": 30, "depth": 4, "split": "f3", "split_condition": 0.210526317, "yes": 61, "no": 62, "missing": 62 , "gain": 0.48059082, "cover": 466.70932, "children": [
            { "nodeid": 61, "leaf": -0.0322801732 , "cover": 7.29990959 }, 
            { "nodeid": 62, "leaf": -0.0549255274 , "cover": 459.409424 }
          ]}
        ]}
      ]}
    ]}
  ]},
  { "nodeid": 0, "depth": 0, "split": "f6", "split_condition": 0.642323911, "yes": 1, "no": 2, "missing": 1 , "gain": 450.949188, "cover": 2120.99072, "children": [
    { "nodeid": 1, "depth": 1, "split": "f8", "split_condition": 0.00966666639, "yes": 3, "no": 4, "missing": 3 , "gain": 75.5782852, "cover": 473.14447, "children": [
      { "nodeid": 3, "depth": 2, "split": "f10", "split_condition": 2.00001001, "yes": 7, "no": 8, "missing": 8 , "gain": 13.4218082, "cover": 138.890213, "children": [
        { "nodeid": 7, "depth": 3, "split": "f0", "split_condition": 0.0187890101, "yes": 15, "no": 16, "missing": 15 , "gain": 6.41231966, "cover": 30.3260288, "children": [
          { "nodeid": 15, "depth": 4, "split": "f4", "split_condition": 0.666666687, "yes": 31, "no": 32, "missing": 32 , "gain": 5.14332533, "cover": 27.8046589, "children": [
            { "nodeid": 31, "leaf": 0.0173655991 , "cover": 24.8247204 }, 
            { "nodeid": 32, "leaf": -0.0439042747 , "cover": 2.97993755 }
          ]}, 
          { "nodeid": 16, "depth": 4, "split": "f7", "split_condition": 0.666387737, "yes": 33, "no": 34, "missing": 34 , "gain": 1.16986656, "cover": 2.52136946, "children": [
            { "nodeid": 33, "leaf": 0.102179281 , "cover": 1.47272038 }, 
            { "nodeid": 34, "leaf": 0.0170503017 , "cover": 1.04864919 }
          ]}
        ]}, 
        { "nodeid": 8, "depth": 3, "split": "f11", "split_condition": 2.00001001, "yes": 17, "no": 18, "missing": 18 , "gain": 4.77289391, "cover": 108.564194, "children": [
          { "nodeid": 17, "depth": 4, "split": "f0", "split_condition": 0.0666666701, "yes": 35, "no": 36, "missing": 36 , "gain": 4.4601841, "cover": 60.1946754, "children": [
            { "nodeid": 35, "leaf": -0.0310000479 , "cover": 58.5908623 }, 
            { "nodeid": 36, "leaf": 0.0382184237 , "cover": 1.60381389 }
          ]}, 
          { "nodeid": 18, "depth": 4, "split": "f4", "split_condition": 0.451697856, "yes": 37, "no": 38, "missing": 38 , "gain": 5.30256224, "cover": 48.3695183, "children": [
            { "nodeid": 37, "leaf": 0.0176735669 , "cover": 14.0747461 }, 
            { "nodeid": 38, "leaf": -0.0178225655 , "cover": 34.2947693 }
          ]}
        ]}
      ]}, 
      { "nodeid": 4, "depth": 2, "split": "f7", "split_condition": 0.747280359, "yes": 9, "no": 10, "missing": 9 , "gain": 32.7850342, "cover": 334.254242, "children": [
        { "nodeid": 9, "depth": 3, "split": "f11", "split_condition": 2.00001001, "yes": 19, "no": 20, "missing": 20 , "gain": 33.2351837, "cover": 291.215424, "children": [
          { "nodeid": 19, "depth": 4, "split": "f5", "split_condition": 0.367151767, "yes": 39, "no": 40, "missing": 40 , "gain": 10.2159281, "cover": 72.5336151, "children": [
            { "nodeid": 39, "leaf": 0.0306742936 , "cover": 30.6891937 }, 
            { "nodeid": 40, "leaf": -0.00683138892 , "cover": 41.8444252 }
          ]}, 
          { "nodeid": 20, "depth": 4, "split": "f0", "split_condition": 0.0388166793, "yes": 41, "no": 42, "missing": 42 , "gain": 6.67770386, "cover": 218.681793, "children": [
            { "nodeid": 41, "leaf": 0.0310008768 , "cover": 48.798893 }, 
            { "nodeid": 42, "leaf": 0.0532147251 , "cover": 169.882904 }
          ]}
        ]}, 
        { "nodeid": 10, "depth": 3, "split": "f7", "split_condition": 0.851046026, "yes": 21, "no": 22, "missing": 22 , "gain": 4.44435835, "cover": 43.0388374, "children": [
          { "nodeid": 21, "depth": 4, "split": "f2", "split_condition": 0.443333328, "yes": 43, "no": 44, "missing": 44 , "gain": 5.09740591, "cover": 19.1345921, "children": [
            { "nodeid": 43, "leaf": 0.0336497799 , "cover": 9.72603989 }, 
            { "nodeid": 44, "leaf": -0.0156440344 , "cover": 9.40855312 }
          ]}, 
          { "nodeid": 22, "depth": 4, "split": "f1", "split_condition": 0.592000008, "yes": 45, "no": 46, "missing": 45 , "gain": 10.2652607, "cover": 23.9042435, "children": [
            { "nodeid": 45, "leaf": -0.0473625697 , "cover": 14.3326683 }, 
            { "nodeid": 46, "leaf": 0.0172484871 , "cover": 9.57157612 }
          ]}
        ]}
      ]}
    ]}, 
    { "nodeid": 2, "depth": 1, "split": "f7", "split_condition": 0.787168741, "yes": 5, "no": 6, "missing": 6 , "gain": 135.049866, "cover": 1647.84631, "children": [
      { "nodeid": 5, "depth": 2, "split": "f0", "split_condition": 0.00255000009, "yes": 11, "no": 12, "missing": 11 , "gain": 88.4162598, "cover": 662.05304, "children": [
        { "nodeid": 11, "depth": 3, "split": "f12", "split_condition": 2.00001001, "yes": 23, "no": 24, "missing": 24 , "gain": 10.6605988, "cover": 310.769836, "children": [
          { "nodeid": 23, "depth": 4, "split": "f6", "split_condition": 0.828464806, "yes": 47, "no": 48, "missing": 48 , "gain": 3.60390878, "cover": 30.3975334, "children": [
            { "nodeid": 47, "leaf": 0.00102690817 , "cover": 23.3402004 }, 
            { "nodeid": 48, "leaf": -0.0377158299 , "cover": 7.05733156 }
          ]}, 
          { "nodeid": 24, "depth": 4, "split": "f3", "split_condition": 0.315789461, "yes": 49, "no": 50, "missing": 50 , "gain": 5.01286316, "cover": 280.372314, "children": [
            { "nodeid": 49, "leaf": -0.00423372863 , "cover": 9.50926208 }, 
            { "nodeid": 50, "leaf": -0.0416403115 , "cover": 270.863037 }
          ]}
        ]}, 
        { "nodeid": 12, "depth": 3, "split": "f10", "split_condition": 2.00001001, "yes": 25, "no": 26, "missing": 26 , "gain": 26.4524021, "cover": 351.283234, "children": [
          { "nodeid": 25, "depth": 4, "split": "f2", "split_condition": 0.333333343, "yes": 51, "no": 52, "missing": 51 , "gain": 13.5185242, "cover": 103.713806, "children": [
            { "nodeid": 51, "leaf": 0.0148645462 , "cover": 96.381958 }, 
            { "nodeid": 52, "leaf": 0.0816223919 , "cover": 7.33184528 }
          ]}, 
          { "nodeid": 26, "depth": 4, "split": "f9", "split_condition": 2.00001001, "yes": 53, "no": 54, "missing": 54 , "gain": 9.50240993, "cover": 247.569427, "children": [
            { "nodeid": 53, "leaf": -0.00144590298 , "cover": 146.125626 }, 
            { "nodeid": 54, "leaf": -0.0213178452 , "cover": 101.443794 }
          ]}
        ]}
      ]}, 
      { "nodeid": 6, "depth": 2, "split": "f6", "split_condition": 0.904901028, "yes": 13, "no": 14, "missing": 14 , "gain": 14.5174561, "cover": 985.793274, "children": [
        { "nodeid": 13, "depth": 3, "split": "f7", "split_condition": 0.898186862, "yes": 27, "no": 28, "missing": 28 , "gain": 12.5565491, "cover": 473.057129, "children": [
          { "nodeid": 27, "depth": 4, "split": "f8", "split_condition": 0.00233333325, "yes": 55, "no": 56, "missing": 56 , "gain": 14.2128601, "cover": 283.960144, "children": [
            { "nodeid": 55, "leaf": -0.0464838259 , "cover": 124.010056 }, 
            { "nodeid": 56, "leaf": -0.0236554611 , "cover": 159.950073 }
          ]}, 
          { "nodeid": 28, "depth": 4, "split": "f3", "split_condition": 0.157894731, "yes": 57, "no": 58, "missing": 58 , "gain": 0.369613647, "cover": 189.097, "children": [
            { "nodeid": 57, "leaf": -0.01248849 , "cover": 1.38317847 }, 
            { "nodeid": 58, "leaf": -0.0509897582 , "cover": 187.713821 }
          ]}
        ]}, 
        { "nodeid": 14, "depth": 3, "split": "f12", "split_condition": 2.00001001, "yes": 29, "no": 30, "missing": 30 , "gain": 0.847351074, "cover": 512.736145, "children": [
          { "nodeid": 29, "depth": 4, "split": "f7", "split_condition": 0.861087859, "yes": 59, "no": 60, "missing": 60 , "gain": 2.1823616, "cover": 65.5491104, "children": [
            { "nodeid": 59, "leaf": -0.0171807017 , "cover": 7.78671312 }, 
            { "nodeid": 60, "leaf": -0.0484036654 , "cover": 57.762394 }
          ]}, 
          { "nodeid": 30, "depth": 4, "split": "f3", "split_condition": 0.210526317, "yes": 61, "no": 62, "missing": 62 , "gain": 0.513061523, "cover": 447.187073, "children": [
            { "nodeid": 61, "leaf": -0.031541422 , "cover": 7.12524033 }, 
            { "nodeid": 62, "leaf": -0.0545349084 , "cover": 440.061829 }
          ]}
        ]}
      ]}
    ]}
  ]},
  { "nodeid": 0, "depth": 0, "split": "f6", "split_condition": 0.68500489, "yes": 1, "no": 2, "missing": 1 , "gain": 420.661713, "cover": 2080.15186, "children": [
    { "nodeid": 1, "depth": 1, "split": "f8", "split_condition": 0.0121890334, "yes": 3, "no": 4, "missing": 3 , "gain": 89.0676117, "cover": 595.062134, "children": [
      { "nodeid": 3, "depth": 2, "split": "f12", "split_condition": 2.00001001, "yes": 7, "no": 8, "missing": 8 , "gain": 15.7840271, "cover": 231.754654, "children": [
        { "nodeid": 7, "depth": 3, "split": "f4", "split_condition": 0.641441464, "yes": 15, "no": 16, "missing": 16 , "gain": 4.56373405, "cover": 34.1997795, "children": [
          { "nodeid": 15, "depth": 4, "split": "f3", "split_condition": 0.631578922, "yes": 31, "no": 32, "missing": 32 , "gain": 13.8601198, "cover": 22.5040112, "children": [
            { "nodeid": 31, "leaf": 0.00278278836 , "cover": 14.7506313 }, 
            { "nodeid": 32, "leaf": 0.0824011788 , "cover": 7.75337934 }
          ]}, 
          { "nodeid": 16, "depth": 4, "split": "f1", "split_condition": 0.149051324, "yes": 33, "no": 34, "missing": 34 , "gain": 9.32779694, "cover": 11.6957684, "children": [
            { "nodeid": 33, "leaf": 0.043454133 , "cover": 4.77682209 }, 
            { "nodeid": 34, "leaf": -0.0401473716 , "cover": 6.91894579 }
          ]}
        ]}, 
        { "nodeid": 8, "depth": 3, "split": "f7", "split_condition": 0.806415617, "yes": 17, "no": 18, "missing": 18 , "gain": 10.5505867, "cover": 197.554886, "children": [
          { "nodeid": 17, "depth": 4, "split": "f0", "split_condition": 0.00857733376, "yes": 35, "no": 36, "missing": 36 , "gain": 20.8005486, "cover": 176.774384, "children": [
            { "nodeid": 35, "leaf": -0.0229993537 , "cover": 127.744675 }, 
            { "nodeid": 36, "leaf": 0.0150477113 , "cover": 49.029705 }
          ]}, 
          { "nodeid": 18, "depth": 4, "split": "f7", "split_condition": 0.980195284, "yes": 37, "no": 38, "missing": 38 , "gain": 0.565977097, "cover": 20.7804985, "children": [
            { "nodeid": 37, "leaf": -0.0514791384 , "cover": 19.6070747 }, 
            { "nodeid": 38, "leaf": -0.00777167594 , "cover": 1.17342496 }
          ]}
        ]}
      ]}, 
      { "nodeid": 4, "depth": 2, "split": "f7", "split_condition": 0.747280359, "yes": 9, "no": 10, "missing": 10 , "gain": 46.7300949, "cover": 363.307465, "children": [
        { "nodeid": 9, "depth": 3, "split": "f11", "split_condition": 2.00001001, "yes": 19, "no": 20, "missing": 20 , "gain": 35.110199, "cover": 307.695404, "children": [
          { "nodeid": 19, "depth": 4, "split": "f6", "split_condition": 0.492372602, "yes": 39, "no": 40, "missing": 40 , "gain": 10.7663622, "cover": 73.331665, "children": [
            { "nodeid": 39, "leaf": 0.0309600532 , "cover": 26.1021271 }, 
            { "nodeid": 40, "leaf": -0.00844965596 , "cover": 47.229538 }
          ]}, 
          { "nodeid": 20, "depth": 4, "split": "f0", "split_condition": 0.0388166793, "yes": 41, "no": 42, "missing": 42 , "gain": 12.1669464, "cover": 234.363739, "children": [
            { "nodeid": 41, "leaf": 0.0224423278 , "cover": 48.1450996 }, 
            { "nodeid": 42, "leaf": 0.0513281785 , "cover": 186.218643 }
          ]}
        ]}, 
        { "nodeid": 10, "depth": 3, "split": "f3", "split_condition": 0.263157904, "yes": 21, "no": 22, "missing": 22 , "gain": 4.7001214, "cover": 55.612072, "children": [
          { "nodeid": 21, "depth": 4, "split": "f7", "split_condition": 0.896513224, "yes": 43, "no": 44, "missing": 44 , "gain": 3.97369289, "cover": 4.72144032, "children": [
            { "nodeid": 43, "leaf": 0.0535491109 , "cover": 3.51018524 }, 
            { "nodeid": 44, "leaf": -0.0313880555 , "cover": 1.21125519 }
          ]}, 
          { "nodeid": 22, "depth": 4, "split": "f2", "split_condition": 0.150000006, "yes": 45, "no": 46, "missing": 45 , "gain": 4.51806736, "cover": 50.8906326, "children": [
            { "nodeid": 45, "leaf": -0.034390036 , "cover": 22.3001499 }, 
            { "nodeid": 46, "leaf": -0.00454116613 , "cover": 28.5904827 }
          ]}
        ]}
      ]}
    ]}, 
    { "nodeid": 2, "depth": 1, "split": "f7", "split_condition": 0.787168741, "yes": 5, "no": 6, "missing": 6 , "gain": 98.086853, "cover": 1485.08972, "children": [
      { "nodeid": 5, "depth": 2, "split": "f0", "split_condition": 0.00255000009, "yes": 11, "no": 12, "missing": 11 , "gain": 68.5610733, "cover": 559.304504, "children": [
        { "nodeid": 11, "depth": 3, "split": "f12", "split_condition": 2.00001001, "yes": 23, "no": 24, "missing": 24 , "gain": 9.32269287, "cover": 269.283813, "children": [
          { "nodeid": 23, "depth": 4, "split": "f1", "split_condition": 0.0153000001, "yes": 47, "no": 48, "missing": 48 , "gain": 3.33519912, "cover": 26.9909286, "children": [
            { "nodeid": 47, "leaf": -0.0377980992 , "cover": 6.74174023 }, 
            { "nodeid": 48, "leaf": 0.000750999898 , "cover": 20.2491894 }
          ]}, 
          { "nodeid": 24, "depth": 4, "split": "f8", "split_condition": 0.00077777775, "yes": 49, "no": 50, "missing": 50 , "gain": 3.12260437, "cover": 242.292892, "children": [
            { "nodeid": 49, "leaf": -0.0463230945 , "cover": 143.078873 }, 
            { "nodeid": 50, "leaf": -0.0336420797 , "cover": 99.2140198 }
          ]}
        ]}, 
        { "nodeid": 12, "depth": 3, "split": "f10", "split_condition": 2.00001001, "yes": 25, "no": 26, "missing": 26 , "gain": 20.8002262, "cover": 290.02066, "children": [
          { "nodeid": 25, "depth": 4, "split": "f1", "split_condition": 0.0250000004, "yes": 51, "no": 52, "missing": 52 , "gain": 6.43029118, "cover": 85.9472809, "children": [
            { "nodeid": 51, "leaf": -0.0243160557 , "cover": 7.59804392 }, 
            { "nodeid": 52, "leaf": 0.0216248669 , "cover": 78.3492432 }
          ]}, 
          { "nodeid": 26, "depth": 4, "split": "f1", "split_condition": 0.161406755, "yes": 53, "no": 54, "missing": 54 , "gain": 7.69314957, "cover": 204.073364, "children": [
            { "nodeid": 53, "leaf": -0.0205411166 , "cover": 112.6511 }, 
            { "nodeid": 54, "leaf": -0.00104575546 , "cover": 91.4222717 }
          ]}
        ]}
      ]}, 
      { "nodeid": 6, "depth": 2, "split": "f6", "split_condition": 0.904901028, "yes": 13, "no": 14, "missing": 14 , "gain": 14.9162598, "cover": 925.785278, "children": [
        { "nodeid": 13, "depth": 3, "split": "f7", "split_condition": 0.898186862, "yes": 27, "no": 28, "missing": 28 , "gain": 12.639801, "cover": 434.109741, "children": [
          { "nodeid": 27, "depth": 4, "split": "f1", "split_condition": 0.0900000036, "yes": 55, "no": 56, "missing": 55 , "gain": 15.4814682, "cover": 264.687073, "children": [
            { "nodeid": 55, "leaf": -0.0398565568 , "cover": 194.048187 }, 
            { "nodeid": 56, "leaf": -0.0123089012 , "cover": 70.6388779 }
          ]}, 
          { "nodeid": 28, "depth": 4, "split": "f3", "split_condition": 0.157894731, "yes": 57, "no": 58, "missing": 58 , "gain": 0.577590942, "cover": 169.422684, "children": [
            { "nodeid": 57, "leaf": -0.00735356426 , "cover": 1.14210892 }, 
            { "nodeid": 58, "leaf": -0.0506996214 , "cover": 168.280563 }
          ]}
        ]}, 
        { "nodeid": 14, "depth": 3, "split": "f12", "split_condition": 2.00001001, "yes": 29, "no": 30, "missing": 30 , "gain": 0.912536621, "cover": 491.675507, "children": [
          { "nodeid": 29, "depth": 4, "split": "f7", "split_condition": 0.861087859, "yes": 59, "no": 60, "missing": 60 , "gain": 2.16148376, "cover": 63.2983627, "children": [
            { "nodeid": 59, "leaf": -0.0166072808 , "cover": 7.68983269 }, 
            { "nodeid": 60, "leaf": -0.0478220768 , "cover": 55.6085281 }
          ]}, 
          { "nodeid": 30, "depth": 4, "split": "f3", "split_condition": 0.210526317, "yes": 61, "no": 62, "missing": 62 , "gain": 0.545654297, "cover": 428.377136, "children": [
            { "nodeid": 61, "leaf": -0.0308124479 , "cover": 6.95709467 }, 
            { "nodeid": 62, "leaf": -0.0541614257 , "cover": 421.420044 }
          ]}
        ]}
      ]}
    ]}
  ]},
  { "nodeid": 0, "depth": 0, "split": "f7", "split_condition": 0.748675048, "yes": 1, "no": 2, "missing": 1 , "gain": 394.027557, "cover": 2040.81384, "children": [
    { "nodeid": 1, "depth": 1, "split": "f0", "split_condition": 0.00999999978, "yes": 3, "no": 4, "missing": 3 , "gain": 221.359619, "cover": 970.222778, "children": [
      { "nodeid": 3, "depth": 2, "split": "f12", "split_condition": 2.00001001, "yes": 7, "no": 8, "missing": 8 , "gain": 30.3298187, "cover": 479.35968, "children": [
        { "nodeid": 7, "depth": 3, "split": "f1", "split_condition": 0.0189999994, "yes": 15, "no": 16, "missing": 16 , "gain": 6.43208027, "cover": 67.7711105, "children": [
          { "nodeid": 15, "depth": 4, "split": "f0", "split_condition": 0.00330000324, "yes": 31, "no": 32, "missing": 32 , "gain": 2.36863732, "cover": 10.1373148, "children": [
            { "nodeid": 31, "leaf": -0.0368144251 , "cover": 8.56200886 }, 
            { "nodeid": 32, "leaf": 0.0201679803 , "cover": 1.57530546 }
          ]}, 
          { "nodeid": 16, "depth": 4, "split": "f1", "split_condition": 0.0267999992, "yes": 33, "no": 34, "missing": 33 , "gain": 7.53280973, "cover": 57.6337929, "children": [
            { "nodeid": 33, "leaf": 0.0215112325 , "cover": 50.3692169 }, 
            { "nodeid": 34, "leaf": -0.0302056707 , "cover": 7.26457644 }
          ]}
        ]}, 
        { "nodeid": 8, "depth": 3, "split": "f8", "split_condition": 0.00077777775, "yes": 17, "no": 18, "missing": 18 , "gain": 18.7128296, "cover": 411.588593, "children": [
          { "nodeid": 17, "depth": 4, "split": "f6", "split_condition": 0.528562129, "yes": 35, "no": 36, "missing": 36 , "gain": 3.7413559, "cover": 156.758835, "children": [
            { "nodeid": 35, "leaf": -0.00738884276 , "cover": 8.10221481 }, 
            { "nodeid": 36, "leaf": -0.0432993546 , "cover": 148.656616 }
          ]}, 
          { "nodeid": 18, "depth": 4, "split": "f1", "split_condition": 0.0334700793, "yes": 37, "no": 38, "missing": 38 , "gain": 5.96084976, "cover": 254.829758, "children": [
            { "nodeid": 37, "leaf": -0.0291256197 , "cover": 97.5332718 }, 
            { "nodeid": 38, "leaf": -0.0132646803 , "cover": 157.296478 }
          ]}
        ]}
      ]}, 
      { "nodeid": 4, "depth": 2, "split": "f11", "split_condition": 2.00001001, "yes": 9, "no": 10, "missing": 10 , "gain": 45.0535889, "cover": 490.863098, "children": [
        { "nodeid": 9, "depth": 3, "split": "f6", "split_condition": 0.492372602, "yes": 19, "no": 20, "missing": 20 , "gain": 12.8102083, "cover": 123.75827, "children": [
          { "nodeid": 19, "depth": 4, "split": "f1", "split_condition": 0.340000004, "yes": 39, "no": 40, "missing": 39 , "gain": 9.20455265, "cover": 29.5372524, "children": [
            { "nodeid": 39, "leaf": 0.00578960497 , "cover": 19.334341 }, 
            { "nodeid": 40, "leaf": 0.0630908534 , "cover": 10.2029104 }
          ]}, 
          { "nodeid": 20, "depth": 4, "split": "f7", "split_condition": 0.61952579, "yes": 41, "no": 42, "missing": 42 , "gain": 5.7318716, "cover": 94.2210159, "children": [
            { "nodeid": 41, "leaf": -0.00272086542 , "cover": 69.5415878 }, 
            { "nodeid": 42, "leaf": -0.0304092467 , "cover": 24.6794319 }
          ]}
        ]}, 
        { "nodeid": 10, "depth": 3, "split": "f0", "split_condition": 0.0366666652, "yes": 21, "no": 22, "missing": 22 , "gain": 25.9714966, "cover": 367.104828, "children": [
          { "nodeid": 21, "depth": 4, "split": "f6", "split_condition": 0.486205786, "yes": 43, "no": 44, "missing": 44 , "gain": 14.3026505, "cover": 125.883591, "children": [
            { "nodeid": 43, "leaf": 0.0581417978 , "cover": 15.7813873 }, 
            { "nodeid": 44, "leaf": 0.00846199971 , "cover": 110.102203 }
          ]}, 
          { "nodeid": 22, "depth": 4, "split": "f8", "split_condition": 0.0641666651, "yes": 45, "no": 46, "missing": 46 , "gain": 15.0357971, "cover": 241.221237, "children": [
            { "nodeid": 45, "leaf": 0.0522111915 , "cover": 159.742401 }, 
            { "nodeid": 46, "leaf": 0.0253077149 , "cover": 81.4788361 }
          ]}
        ]}
      ]}
    ]}, 
    { "nodeid": 2, "depth": 1, "split": "f6", "split_condition": 0.863031507, "yes": 5, "no": 6, "missing": 6 , "gain": 33.3841553, "cover": 1070.59094, "children": [
      { "nodeid": 5, "depth": 2, "split": "f7", "split_condition": 0.898186862, "yes": 11, "no": 12, "missing": 12 , "gain": 22.2862549, "cover": 376.048218, "children": [
        { "nodeid": 11, "depth": 3, "split": "f8", "split_condition": 0.00203666673, "yes": 23, "no": 24, "missing": 24 , "gain": 13.8114777, "cover": 235.469376, "children": [
          { "nodeid": 23, "depth": 4, "split": "f0", "split_condition": 0.00200000009, "yes": 47, "no": 48, "missing": 48 , "gain": 1.94551468, "cover": 63.5651054, "children": [
            { "nodeid": 47, "leaf": -0.0482414179 , "cover": 38.3015327 }, 
            { "nodeid": 48, "leaf": -0.027926648 , "cover": 25.2635708 }
          ]}, 
          { "nodeid": 24, "depth": 4, "split": "f9", "split_condition": 2.00001001, "yes": 49, "no": 50, "missing": 50 , "gain": 9.60953331, "cover": 171.904282, "children": [
            { "nodeid": 49, "leaf": -0.00647361064 , "cover": 128.563416 }, 
            { "nodeid": 50, "leaf": -0.0335414335 , "cover": 43.3408546 }
          ]}
        ]}, 
        { "nodeid": 12, "depth": 3, "split": "f6", "split_condition": 0.528562129, "yes": 25, "no": 26, "missing": 26 , "gain": 4.56548309, "cover": 140.578827, "children": [
          { "nodeid": 25, "depth": 4, "split": "f1", "split_condition": 0.620000005, "yes": 51, "no": 52, "missing": 52 , "gain": 6.92185354, "cover": 8.31982327, "children": [
            { "nodeid": 51, "leaf": -0.0469009876 , "cover": 4.46161938 }, 
            { "nodeid": 52, "leaf": 0.0353138894 , "cover": 3.85820389 }
          ]}, 
          { "nodeid": 26, "depth": 4, "split": "f1", "split_condition": 0.937129796, "yes": 53, "no": 54, "missing": 53 , "gain": 0.993179321, "cover": 132.259018, "children": [
            { "nodeid": 53, "leaf": -0.0491125882 , "cover": 129.796799 }, 
            { "nodeid": 54, "leaf": -0.0113197304 , "cover": 2.46220469 }
          ]}
        ]}
      ]}, 
      { "nodeid": 6, "depth": 2, "split": "f7", "split_condition": 0.854114354, "yes": 13, "no": 14, "missing": 14 , "gain": 5.12756348, "cover": 694.542786, "children": [
        { "nodeid": 13, "depth": 3, "split": "f8", "split_condition": 0.00249999994, "yes": 27, "no": 28, "missing": 27 , "gain": 6.14968872, "cover": 188.118073, "children": [
          { "nodeid": 27, "depth": 4, "split": "f12", "split_condition": 2.00001001, "yes": 55, "no": 56, "missing": 56 , "gain": 1.89672089, "cover": 116.757698, "children": [
            { "nodeid": 55, "leaf": -0.0240246151 , "cover": 9.96138191 }, 
            { "nodeid": 56, "leaf": -0.050719317 , "cover": 106.796318 }
          ]}, 
          { "nodeid": 28, "depth": 4, "split": "f11", "split_condition": 2.00001001, "yes": 57, "no": 58, "missing": 58 , "gain": 3.59336853, "cover": 71.3603745, "children": [
            { "nodeid": 57, "leaf": -0.043597538 , "cover": 26.7052307 }, 
            { "nodeid": 58, "leaf": -0.0197312441 , "cover": 44.6551476 }
          ]}
        ]}, 
        { "nodeid": 14, "depth": 3, "split": "f6", "split_condition": 0.889808476, "yes": 29, "no": 30, "missing": 30 , "gain": 1.16607666, "cover": 506.424713, "children": [
          { "nodeid": 29, "depth": 4, "split": "f8", "split_condition": 0.0366666652, "yes": 59, "no": 60, "missing": 59 , "gain": 4.33977127, "cover": 49.7753372, "children": [
            { "nodeid": 59, "leaf": -0.046847295 , "cover": 44.5439415 }, 
            { "nodeid": 60, "leaf": 0.00104113412 , "cover": 5.23139811 }
          ]}, 
          { "nodeid": 30, "depth": 4, "split": "f3", "split_condition": 0.210526317, "yes": 61, "no": 62, "missing": 62 , "gain": 0.644348145, "cover": 456.649384, "children": [
            { "nodeid": 61, "leaf": -0.028610155 , "cover": 6.38171625 }, 
            { "nodeid": 62, "leaf": -0.0532535389 , "cover": 450.26767 }
          ]}
        ]}
      ]}
    ]}
  ]},
  { "nodeid": 0, "depth": 0, "split": "f7", "split_condition": 0.748675048, "yes": 1, "no": 2, "missing": 1 , "gain": 374.012573, "cover": 2003.05762, "children": [
    { "nodeid": 1, "depth": 1, "split": "f0", "split_condition": 0.00999999978, "yes": 3, "no": 4, "missing": 3 , "gain": 200.316559, "cover": 967.934509, "children": [
      { "nodeid": 3, "depth": 2, "split": "f12", "split_condition": 2.00001001, "yes": 7, "no": 8, "missing": 8 , "gain": 28.2685242, "cover": 471.083466, "children": [
        { "nodeid": 7, "depth": 3, "split": "f6", "split_condition": 0.566861391, "yes": 15, "no": 16, "missing": 16 , "gain": 5.87970734, "cover": 68.1465149, "children": [
          { "nodeid": 15, "depth": 4, "split": "f8", "split_condition": 0.00444444455, "yes": 31, "no": 32, "missing": 32 , "gain": 9.74422359, "cover": 8.64907837, "children": [
            { "nodeid": 31, "leaf": 0.0704704523 , "cover": 6.68092442 }, 
            { "nodeid": 32, "leaf": -0.0399432518 , "cover": 1.96815383 }
          ]}, 
          { "nodeid": 16, "depth": 4, "split": "f7", "split_condition": 0.578521609, "yes": 33, "no": 34, "missing": 34 , "gain": 8.21064854, "cover": 59.4974365, "children": [
            { "nodeid": 33, "leaf": -0.0185329542 , "cover": 26.6647072 }, 
            { "nodeid": 34, "leaf": 0.0181940738 , "cover": 32.8327293 }
          ]}
        ]}, 
        { "nodeid": 8, "depth": 3, "split": "f8", "split_condition": 0.00077777775, "yes": 17, "no": 18, "missing": 18 , "gain": 18.1962128, "cover": 402.936951, "children": [
          { "nodeid": 17, "depth": 4, "split": "f7", "split_condition": 0.288981855, "yes": 35, "no": 36, "missing": 36 , "gain": 3.65021515, "cover": 151.722549, "children": [
            { "nodeid": 35, "leaf": -0.0120673059 , "cover": 11.2568312 }, 
            { "nodeid": 36, "leaf": -0.0429785065 , "cover": 140.465714 }
          ]}, 
          { "nodeid": 18, "depth": 4, "split": "f1", "split_condition": 0.0334700793, "yes": 37, "no": 38, "missing": 38 , "gain": 5.64586639, "cover": 251.214417, "children": [
            { "nodeid": 37, "leaf": -0.0282962378 , "cover": 95.4553375 }, 
            { "nodeid": 38, "leaf": -0.0127325207 , "cover": 155.759079 }
          ]}
        ]}
      ]}, 
      { "nodeid": 4, "depth": 2, "split": "f11", "split_condition": 2.00001001, "yes": 9, "no": 10, "missing": 10 , "gain": 39.4718781, "cover": 496.851044, "children": [
        { "nodeid": 9, "depth": 3, "split": "f6", "split_condition": 0.492372602, "yes": 19, "no": 20, "missing": 20 , "gain": 11.5444069, "cover": 123.534843, "children": [
          { "nodeid": 19, "depth": 4, "split": "f2", "split_condition": 0.333333343, "yes": 39, "no": 40, "missing": 40 , "gain": 8.26150608, "cover": 29.9870491, "children": [
            { "nodeid": 39, "leaf": -0.0161247477 , "cover": 8.16412926 }, 
            { "nodeid": 40, "leaf": 0.0409197733 , "cover": 21.8229198 }
          ]}, 
          { "nodeid": 20, "depth": 4, "split": "f7", "split_condition": 0.61952579, "yes": 41, "no": 42, "missing": 42 , "gain": 5.36194515, "cover": 93.5477982, "children": [
            { "nodeid": 41, "leaf": -0.00259174476 , "cover": 69.4091339 }, 
            { "nodeid": 42, "leaf": -0.0295870937 , "cover": 24.1386642 }
          ]}
        ]}, 
        { "nodeid": 10, "depth": 3, "split": "f0", "split_condition": 0.0388166793, "yes": 21, "no": 22, "missing": 22 , "gain": 22.5120697, "cover": 373.316193, "children": [
          { "nodeid": 21, "depth": 4, "split": "f1", "split_condition": 0.0854000002, "yes": 43, "no": 44, "missing": 44 , "gain": 11.9051819, "cover": 133.593338, "children": [
            { "nodeid": 43, "leaf": 0.0297519471 , "cover": 66.1876068 }, 
            { "nodeid": 44, "leaf": 1.07041624e-05 , "cover": 67.4057236 }
          ]}, 
          { "nodeid": 22, "depth": 4, "split": "f8", "split_condition": 0.0641666651, "yes": 45, "no": 46, "missing": 46 , "gain": 13.5565033, "cover": 239.72287, "children": [
            { "nodeid": 45, "leaf": 0.0492533855 , "cover": 157.222565 }, 
            { "nodeid": 46, "leaf": 0.0237556249 , "cover": 82.5003052 }
          ]}
        ]}
      ]}
    ]}, 
    { "nodeid": 2, "depth": 1, "split": "f6", "split_condition": 0.875202835, "yes": 5, "no": 6, "missing": 6 , "gain": 33.4193115, "cover": 1035.12305, "children": [
      { "nodeid": 5, "depth": 2, "split": "f7", "split_condition": 0.898186862, "yes": 11, "no": 12, "missing": 12 , "gain": 19.4239807, "cover": 427.004608, "children": [
        { "nodeid": 11, "depth": 3, "split": "f0", "split_condition": 0.00266666664, "yes": 23, "no": 24, "missing": 23 , "gain": 18.7881279, "cover": 279.060822, "children": [
          { "nodeid": 23, "depth": 4, "split": "f0", "split_condition": 3.33333332e-06, "yes": 47, "no": 48, "missing": 48 , "gain": 3.23201752, "cover": 72.7624741, "children": [
            { "nodeid": 47, "leaf": 0.00209497218 , "cover": 3.39954185 }, 
            { "nodeid": 48, "leaf": -0.0472226255 , "cover": 69.3629379 }
          ]}, 
          { "nodeid": 24, "depth": 4, "split": "f11", "split_condition": 2.00001001, "yes": 49, "no": 50, "missing": 50 , "gain": 11.8797417, "cover": 206.29834, "children": [
            { "nodeid": 49, "leaf": -0.0363233536 , "cover": 50.098999 }, 
            { "nodeid": 50, "leaf": -0.00846232101 , "cover": 156.199341 }
          ]}
        ]}, 
        { "nodeid": 12, "depth": 3, "split": "f6", "split_condition": 0.528562129, "yes": 25, "no": 26, "missing": 26 , "gain": 4.48597717, "cover": 147.943787, "children": [
          { "nodeid": 25, "depth": 4, "split": "f1", "split_condition": 0.620000005, "yes": 51, "no": 52, "missing": 52 , "gain": 6.46077728, "cover": 8.26067448, "children": [
            { "nodeid": 51, "leaf": -0.0463217199 , "cover": 4.30795097 }, 
            { "nodeid": 52, "leaf": 0.0332476422 , "cover": 3.95272374 }
          ]}, 
          { "nodeid": 26, "depth": 4, "split": "f1", "split_condition": 0.937129796, "yes": 53, "no": 54, "missing": 53 , "gain": 0.90802002, "cover": 139.683105, "children": [
            { "nodeid": 53, "leaf": -0.0484559312 , "cover": 137.153351 }, 
            { "nodeid": 54, "leaf": -0.0121082356 , "cover": 2.52976632 }
          ]}
        ]}
      ]}, 
      { "nodeid": 6, "depth": 2, "split": "f7", "split_condition": 0.854114354, "yes": 13, "no": 14, "missing": 14 , "gain": 4.24163818, "cover": 608.118469, "children": [
        { "nodeid": 13, "depth": 3, "split": "f12", "split_condition": 2.00001001, "yes": 27, "no": 28, "missing": 28 , "gain": 5.8240509, "cover": 142.24353, "children": [
          { "nodeid": 27, "depth": 4, "split": "f6", "split_condition": 0.913826704, "yes": 55, "no": 56, "missing": 56 , "gain": 2.21183228, "cover": 17.5150623, "children": [
            { "nodeid": 55, "leaf": -0.0186596345 , "cover": 16.2682762 }, 
            { "nodeid": 56, "leaf": 0.0348579809 , "cover": 1.24678576 }
          ]}, 
          { "nodeid": 28, "depth": 4, "split": "f0", "split_condition": 0.0050702868, "yes": 57, "no": 58, "missing": 58 , "gain": 3.13359833, "cover": 124.728477, "children": [
            { "nodeid": 57, "leaf": -0.050027132 , "cover": 90.2941132 }, 
            { "nodeid": 58, "leaf": -0.0303999465 , "cover": 34.4343605 }
          ]}
        ]}, 
        { "nodeid": 14, "depth": 3, "split": "f3", "split_condition": 0.210526317, "yes": 29, "no": 30, "missing": 30 , "gain": 0.543457031, "cover": 465.874939, "children": [
          { "nodeid": 29, "depth": 4, "split": "f0", "split_condition": 0.13666667, "yes": 59, "no": 60, "missing": 60 , "gain": 0.634190321, "cover": 6.46210718, "children": [
            { "nodeid": 59, "leaf": -0.0373215303 , "cover": 4.56068563 }, 
            { "nodeid": 60, "leaf": -0.00247223466 , "cover": 1.90142202 }
          ]}, 
          { "nodeid": 30, "depth": 4, "split": "f1", "split_condition": 0.165000007, "yes": 61, "no": 62, "missing": 61 , "gain": 0.465637207, "cover": 459.412842, "children": [
            { "nodeid": 61, "leaf": -0.0530697219 , "cover": 420.030487 }, 
            { "nodeid": 62, "leaf": -0.0427927934 , "cover": 39.3823624 }
          ]}
        ]}
      ]}
    ]}
  ]},
  { "nodeid": 0, "depth": 0, "split": "f7", "split_condition": 0.748675048, "yes": 1, "no": 2, "missing": 1 , "gain": 354.798553, "cover": 1966.49951, "children": [
    { "nodeid": 1, "depth": 1, "split": "f0", "split_condition": 0.00999999978, "yes": 3, "no": 4, "missing": 3 , "gain": 181.293091, "cover": 965.532166, "children": [
      { "nodeid": 3, "depth": 2, "split": "f12", "split_condition": 2.00001001, "yes": 7, "no": 8, "missing": 8 , "gain": 26.3854599, "cover": 463.105804, "children": [
        { "nodeid": 7, "depth": 3, "split": "f1", "split_condition": 0.0189999994, "yes": 15, "no": 16, "missing": 16 , "gain": 5.74361658, "cover": 68.4654694, "children": [
          { "nodeid": 15, "depth": 4, "split": "f0", "split_condition": 0.00330000324, "yes": 31, "no": 32, "missing": 32 , "gain": 2.23319507, "cover": 9.95159531, "children": [
            { "nodeid": 31, "leaf": -0.0360680521 , "cover": 8.35207939 }, 
            { "nodeid": 32, "leaf": 0.0192031246 , "cover": 1.59951639 }
          ]}, 
          { "nodeid": 16, "depth": 4, "split": "f1", "split_condition": 0.0267999992, "yes": 33, "no": 34, "missing": 33 , "gain": 6.58472633, "cover": 58.5138741, "children": [
            { "nodeid": 33, "leaf": 0.0195257831 , "cover": 51.4176941 }, 
            { "nodeid": 34, "leaf": -0.0291760992 , "cover": 7.09617949 }
          ]}
        ]}, 
        { "nodeid": 8, "depth": 3, "split": "f8", "split_condition": 0.00077777775, "yes": 17, "no": 18, "missing": 18 , "gain": 17.6770554, "cover": 394.64032, "children": [
          { "nodeid": 17, "depth": 4, "split": "f6", "split_condition": 0.546575785, "yes": 35, "no": 36, "missing": 36 , "gain": 3.61546326, "cover": 146.886475, "children": [
            { "nodeid": 35, "leaf": -0.00910382532 , "cover": 9.49482059 }, 
            { "nodeid": 36, "leaf": -0.0421184897 , "cover": 137.391647 }
          ]}, 
          { "nodeid": 18, "depth": 4, "split": "f1", "split_condition": 0.0334700793, "yes": 37, "no": 38, "missing": 38 , "gain": 5.34191895, "cover": 247.75386, "children": [
            { "nodeid": 37, "leaf": -0.0274785999 , "cover": 93.4620438 }, 
            { "nodeid": 38, "leaf": -0.0122172935 , "cover": 154.291809 }
          ]}
        ]}
      ]}, 
      { "nodeid": 4, "depth": 2, "split": "f11", "split_condition": 2.00001001, "yes": 9, "no": 10, "missing": 10 , "gain": 34.700737, "cover": 502.426392, "children": [
        { "nodeid": 9, "depth": 3, "split": "f6", "split_condition": 0.601103544, "yes": 19, "no": 20, "missing": 20 , "gain": 10.421957, "cover": 123.341118, "children": [
          { "nodeid": 19, "depth": 4, "split": "f5", "split_condition": 0.379902989, "yes": 39, "no": 40, "missing": 40 , "gain": 9.98286057, "cover": 65.9427872, "children": [
            { "nodeid": 39, "leaf": 0.0340413302 , "cover": 28.6755142 }, 
            { "nodeid": 40, "leaf": -0.00471736351 , "cover": 37.2672729 }
          ]}, 
          { "nodeid": 20, "depth": 4, "split": "f5", "split_condition": 0.632986844, "yes": 41, "no": 42, "missing": 42 , "gain": 3.8054142, "cover": 57.3983345, "children": [
            { "nodeid": 41, "leaf": -0.0275932457 , "cover": 32.2974586 }, 
            { "nodeid": 42, "leaf": -0.00173749763 , "cover": 25.1008759 }
          ]}
        ]}, 
        { "nodeid": 10, "depth": 3, "split": "f2", "split_condition": 0.25999999, "yes": 21, "no": 22, "missing": 21 , "gain": 20.317337, "cover": 379.085266, "children": [
